{"learner":{"attributes":{"scikit_learn":"{\"_estimator_type\": \"regressor\"}"},"feature_names":["attempt_count","ms_first_response_time","answer_type_choose_1","answer_type_choose_n","answer_type_external","answer_type_fill_in_1","answer_type_open_response","answer_type_rank","tutor_mode_pre","tutor_mode_survey","tutor_mode_test","tutor_mode_tutor"],"feature_types":["int","float","float","float","float","float","float","float","float","float","float","float"],"gradient_booster":{"model":{"gbtree_model_param":{"num_parallel_tree":"1","num_trees":"100"},"iteration_indptr":[0,1,2,3,4,5,6,7,8,9,10,11,12,13,14,15,16,17,18,19,20,21,22,23,24,25,26,27,28,29,30,31,32,33,34,35,36,37,38,39,40,41,42,43,44,45,46,47,48,49,50,51,52,53,54,55,56,57,58,59,60,61,62,63,64,65,66,67,68,69,70,71,72,73,74,75,76,77,78,79,80,81,82,83,84,85,86,87,88,89,90,91,92,93,94,95,96,97,98,99,100],"tree_info":[0,0,0,0,0,0,0,0,0,0,0,0,0,0,0,0,0,0,0,0,0,0,0,0,0,0,0,0,0,0,0,0,0,0,0,0,0,0,0,0,0,0,0,0,0,0,0,0,0,0,0,0,0,0,0,0,0,0,0,0,0,0,0,0,0,0,0,0,0,0,0,0,0,0,0,0,0,0,0,0,0,0,0,0,0,0,0,0,0,0,0,0,0,0,0,0,0,0,0,0],"trees":[{"base_weights":[2.684119E-8,1.1238246E-1,-6.2899254E-2,-6.117148E-1,1.3126166E-1,-3.702507E-1,-6.288516E-2,-3.6475712E-1,1.4413175E-1,-3.3413786E-1,-6.0527872E-2,-5.991671E-1,6.923744E-2,1.5462682E-1,-2.5091523E-1,-3.2997653E-1,-5.870645E-2,-4.3218365E-1,-6.028732E-1,-1.8732803E-1,1.4369833E-1,1.1842083E-1,2.353311E-1,-2.1118255E-1,-5.192832E-1,-3.260691E-2,-4.5755334E-2,-3.395718E-2,-4.563575E-2,-6.1499324E-2,-5.6082834E-2,-2.8062353E-2,-6.723871E-3,1.5617589E-2,-5.3708207E-2,-7.122197E-3,1.55353695E-2,2.6287515E-2,1.9588953E-2,-4.0261127E-2,-1.8525993E-2,-5.784906E-2,-4.2394515E-2],"categories":[],"categories_nodes":[],"categories_segments":[],"categories_sizes":[],"default_left":[0,0,0,0,0,0,0,0,0,0,0,0,0,0,0,0,0,0,0,0,0,0,0,0,0,0,0,0,0,0,0,0,0,0,0,0,0,0,0,0,0,0,0],"id":0,"left_children":[1,3,-1,5,7,9,-1,11,13,15,-1,17,19,21,23,25,-1,27,29,31,33,35,37,39,41,-1,-1,-1,-1,-1,-1,-1,-1,-1,-1,-1,-1,-1,-1,-1,-1,-1,-1],"loss_changes":[5.717682E4,9.381405E3,0E0,7.192432E1,4.2696396E3,9.626312E0,0E0,1.7208494E3,2.7028496E3,8.651047E-1,0E0,6.536621E0,1.13371506E2,1.8555186E3,1.797854E2,3.453064E-1,0E0,3.8682175E-1,5.1289062E0,1.4938194E1,3.914995E1,3.0703774E3,2.1359863E2,7.285687E1,1.2032043E1,0E0,0E0,0E0,0E0,0E0,0E0,0E0,0E0,0E0,0E0,0E0,0E0,0E0,0E0,0E0,0E0,0E0,0E0],"parents":[2147483647,0,0,1,1,3,3,4,4,5,5,7,7,8,8,9,9,11,11,12,12,13,13,14,14,15,15,17,17,18,18,19,19,20,20,21,21,22,22,23,23,24,24],"right_children":[2,4,-1,6,8,10,-1,12,14,16,-1,18,20,22,24,26,-1,28,30,32,34,36,38,40,42,-1,-1,-1,-1,-1,-1,-1,-1,-1,-1,-1,-1,-1,-1,-1,-1,-1,-1],"split_conditions":[2E0,1E0,-6.2899254E-2,2.209164E-2,2.2094086E-2,1E0,-6.288516E-2,1E0,1E0,1E0,-6.0527872E-2,1E0,2.2092711E-2,1E0,1E0,1E0,-5.870645E-2,2.2092711E-2,2.2093466E-2,2.2092264E-2,1E0,1E0,2.2141257E-2,2.210116E-2,2.21488E-2,-3.260691E-2,-4.5755334E-2,-3.395718E-2,-4.563575E-2,-6.1499324E-2,-5.6082834E-2,-2.8062353E-2,-6.723871E-3,1.5617589E-2,-5.3708207E-2,-7.122197E-3,1.55353695E-2,2.6287515E-2,1.9588953E-2,-4.0261127E-2,-1.8525993E-2,-5.784906E-2,-4.2394515E-2],"split_indices":[0,0,0,1,1,5,0,2,8,7,0,11,1,2,3,2,0,1,1,1,8,11,1,1,1,0,0,0,0,0,0,0,0,0,0,0,0,0,0,0,0,0,0],"split_type":[0,0,0,0,0,0,0,0,0,0,0,0,0,0,0,0,0,0,0,0,0,0,0,0,0,0,0,0,0,0,0,0,0,0,0,0,0,0,0,0,0,0,0],"sum_hessian":[8.08863E5,6.86251E5,1.22612E5,1.7437E4,6.68814E5,1.157E3,1.628E4,1.6914E4,6.519E5,1.005E3,1.52E2,1.0982E4,5.932E3,6.3503E5,1.687E4,9.91E2,1.4E1,2.41E2,1.0741E4,1.334E3,4.598E3,4.38369E5,1.96661E5,1.4696E4,2.174E3,9.65E2,2.6E1,5.3E1,1.88E2,8.327E3,2.414E3,7.5E2,5.84E2,4.516E3,8.2E1,7.1456E4,3.66913E5,1.15792E5,8.0869E4,1.751E3,1.2945E4,1.338E3,8.36E2],"tree_param":{"num_deleted":"0","num_feature":"12","num_nodes":"43","size_leaf_vector":"1"}},{"base_weights":[-8.3033973E-7,1.011433E-1,-5.660939E-2,-5.5055827E-1,1.1813495E-1,-3.333963E-1,-5.6597024E-2,-2.7534956E-1,1.3166991E-1,-3.0086032E-1,-5.4514647E-2,-5.3504276E-1,1.03583224E-1,1.411394E-1,-2.2429655E-1,-2.9705787E-1,-5.3227182E-2,-3.898294E-1,-5.394344E-1,-1.6862127E-1,1.5069637E-1,1.0968878E-1,2.119862E-1,-1.8854289E-1,-4.664381E-1,-2.9349599E-2,-4.1349266E-2,-3.7367564E-2,-5.342822E-2,-5.5796128E-2,-5.1787503E-2,-2.5259856E-2,-6.052633E-3,1.6433323E-2,-4.7011368E-2,-6.358539E-3,1.4356977E-2,2.3444943E-2,1.7063301E-2,-3.5891242E-2,-1.6673533E-2,-5.1119883E-2,-3.6382716E-2],"categories":[],"categories_nodes":[],"categories_segments":[],"categories_sizes":[],"default_left":[0,0,0,0,0,0,0,0,0,0,0,0,0,0,0,0,0,0,0,0,0,0,0,0,0,0,0,0,0,0,0,0,0,0,0,0,0,0,0,0,0,0,0],"id":1,"left_children":[1,3,-1,5,7,9,-1,11,13,15,-1,17,19,21,23,25,-1,27,29,31,33,35,37,39,41,-1,-1,-1,-1,-1,-1,-1,-1,-1,-1,-1,-1,-1,-1,-1,-1,-1,-1],"loss_changes":[4.631317E4,7.599266E3,0E0,5.8174805E1,3.5620107E3,7.814026E0,0E0,2.188709E3,2.1795215E3,7.2709656E-1,0E0,8.205811E0,1.1602221E2,1.4033291E3,1.4496765E2,2.9005432E-1,0E0,7.127342E-1,4.82666E0,1.2103195E1,6.535782E1,2.5607432E3,1.7983105E2,5.4187866E1,9.7118225E0,0E0,0E0,0E0,0E0,0E0,0E0,0E0,0E0,0E0,0E0,0E0,0E0,0E0,0E0,0E0,0E0,0E0,0E0],"parents":[2147483647,0,0,1,1,3,3,4,4,5,5,7,7,8,8,9,9,11,11,12,12,13,13,14,14,15,15,17,17,18,18,19,19,20,20,21,21,22,22,23,23,24,24],"right_children":[2,4,-1,6,8,10,-1,12,14,16,-1,18,20,22,24,26,-1,28,30,32,34,36,38,40,42,-1,-1,-1,-1,-1,-1,-1,-1,-1,-1,-1,-1,-1,-1,-1,-1,-1,-1],"split_conditions":[2E0,1E0,-5.660939E-2,2.209164E-2,2.2094626E-2,1E0,-5.6597024E-2,1E0,1E0,1E0,-5.4514647E-2,1E0,2.2092711E-2,1E0,1E0,1E0,-5.3227182E-2,1E0,2.209311E-2,2.2092264E-2,1E0,1E0,2.2156447E-2,2.210116E-2,2.2165213E-2,-2.9349599E-2,-4.1349266E-2,-3.7367564E-2,-5.342822E-2,-5.5796128E-2,-5.1787503E-2,-2.5259856E-2,-6.052633E-3,1.6433323E-2,-4.7011368E-2,-6.358539E-3,1.4356977E-2,2.3444943E-2,1.7063301E-2,-3.5891242E-2,-1.6673533E-2,-5.1119883E-2,-3.6382716E-2],"split_indices":[0,0,0,1,1,5,0,2,8,7,0,11,1,2,3,2,0,3,1,1,8,11,1,1,1,0,0,0,0,0,0,0,0,0,0,0,0,0,0,0,0,0,0],"split_type":[0,0,0,0,0,0,0,0,0,0,0,0,0,0,0,0,0,0,0,0,0,0,0,0,0,0,0,0,0,0,0,0,0,0,0,0,0,0,0,0,0,0,0],"sum_hessian":[8.08863E5,6.86251E5,1.22612E5,1.7437E4,6.68814E5,1.157E3,1.628E4,2.224E4,6.46574E5,1.005E3,1.52E2,1.3196E4,9.044E3,6.2982E5,1.6754E4,9.91E2,1.4E1,3.9E2,1.2806E4,1.334E3,7.71E3,4.36188E5,1.93632E5,1.46E4,2.154E3,9.65E2,2.6E1,3.54E2,3.6E1,6.874E3,5.932E3,7.5E2,5.84E2,7.545E3,1.65E2,7.134E4,3.64848E5,1.25471E5,6.8161E4,1.655E3,1.2945E4,1.497E3,6.57E2],"tree_param":{"num_deleted":"0","num_feature":"12","num_nodes":"43","size_leaf_vector":"1"}},{"base_weights":[-1.540442E-6,9.102812E-2,-5.094849E-2,-4.9551594E-1,1.0632093E-1,-3.002107E-1,-5.093768E-2,-2.4782628E-1,1.1850278E-1,-2.7089745E-1,-4.9098816E-2,-4.8155352E-1,9.321808E-2,1.2702554E-1,-2.0187528E-1,-2.6742333E-1,-4.825931E-2,-3.5107863E-1,-4.8549935E-1,-9.364293E-2,1.502958E-1,9.871993E-2,1.9078778E-1,-1.6969222E-1,-4.198349E-1,-2.6417673E-2,-3.736748E-2,-3.364133E-2,-4.82298E-2,-5.0217327E-2,-4.660962E-2,-2.2737233E-2,-2.0106414E-3,1.6347783E-2,-4.2307187E-2,-5.722692E-3,1.2921283E-2,2.1680081E-2,1.607379E-2,-2.62546E-2,-1.3670891E-2,-4.6883848E-2,-3.4211032E-2],"categories":[],"categories_nodes":[],"categories_segments":[],"categories_sizes":[],"default_left":[0,0,0,0,0,0,0,0,0,0,0,0,0,0,0,0,0,0,0,0,0,0,0,0,0,0,0,0,0,0,0,0,0,0,0,0,0,0,0,0,0,0,0],"id":2,"left_children":[1,3,-1,5,7,9,-1,11,13,15,-1,17,19,21,23,25,-1,27,29,31,33,35,37,39,41,-1,-1,-1,-1,-1,-1,-1,-1,-1,-1,-1,-1,-1,-1,-1,-1,-1,-1],"loss_changes":[3.7513617E4,6.155671E3,0E0,4.7053223E1,2.8854116E3,6.3428955E0,0E0,1.7729052E3,1.765502E3,6.108093E-1,0E0,6.623535E0,9.6484436E1,1.1367012E3,1.17458496E2,2.4347687E-1,0E0,5.9017944E-1,3.9094238E0,2.0813995E1,5.2439575E1,2.0742056E3,1.5132568E2,4.4681488E1,8.047546E0,0E0,0E0,0E0,0E0,0E0,0E0,0E0,0E0,0E0,0E0,0E0,0E0,0E0,0E0,0E0,0E0,0E0,0E0],"parents":[2147483647,0,0,1,1,3,3,4,4,5,5,7,7,8,8,9,9,11,11,12,12,13,13,14,14,15,15,17,17,18,18,19,19,20,20,21,21,22,22,23,23,24,24],"right_children":[2,4,-1,6,8,10,-1,12,14,16,-1,18,20,22,24,26,-1,28,30,32,34,36,38,40,42,-1,-1,-1,-1,-1,-1,-1,-1,-1,-1,-1,-1,-1,-1,-1,-1,-1,-1],"split_conditions":[2E0,1E0,-5.094849E-2,2.209164E-2,2.2094626E-2,1E0,-5.093768E-2,1E0,1E0,1E0,-4.9098816E-2,1E0,2.209311E-2,1E0,1E0,1E0,-4.825931E-2,1E0,2.209311E-2,2.2092264E-2,1E0,1E0,2.2133008E-2,2.2113346E-2,2.21488E-2,-2.6417673E-2,-3.736748E-2,-3.364133E-2,-4.82298E-2,-5.0217327E-2,-4.660962E-2,-2.2737233E-2,-2.0106414E-3,1.6347783E-2,-4.2307187E-2,-5.722692E-3,1.2921283E-2,2.1680081E-2,1.607379E-2,-2.62546E-2,-1.3670891E-2,-4.6883848E-2,-3.4211032E-2],"split_indices":[0,0,0,1,1,5,0,2,8,7,0,11,1,2,3,2,0,3,1,1,8,11,1,1,1,0,0,0,0,0,0,0,0,0,0,0,0,0,0,0,0,0,0],"split_type":[0,0,0,0,0,0,0,0,0,0,0,0,0,0,0,0,0,0,0,0,0,0,0,0,0,0,0,0,0,0,0,0,0,0,0,0,0,0,0,0,0,0,0],"sum_hessian":[8.08863E5,6.86251E5,1.22612E5,1.7437E4,6.68814E5,1.157E3,1.628E4,2.224E4,6.46574E5,1.005E3,1.52E2,1.3196E4,9.044E3,6.2982E5,1.6754E4,9.91E2,1.4E1,3.9E2,1.2806E4,2.116E3,6.928E3,4.36188E5,1.93632E5,1.46E4,2.154E3,9.65E2,2.6E1,3.54E2,3.6E1,6.874E3,5.932E3,7.5E2,1.366E3,6.773E3,1.55E2,7.134E4,3.64848E5,1.03784E5,8.9848E4,3.825E3,1.0775E4,1.318E3,8.36E2],"tree_param":{"num_deleted":"0","num_feature":"12","num_nodes":"43","size_leaf_vector":"1"}},{"base_weights":[-2.0766633E-6,8.1924565E-2,-4.5853686E-2,-4.459765E-1,9.5688395E-2,-2.7032882E-1,-4.584422E-2,-1.9293638E-1,1.0811299E-1,-2.4391907E-1,-4.4221025E-2,-4.3269703E-1,1.03956334E-1,1.7160168E-2,1.3338687E-1,-2.4074529E-1,-4.375511E-2,-3.2064986E-1,-4.3697214E-1,-8.429033E-2,1.4295156E-1,-6.2804386E-2,1.1774358E-1,3.1061822E-3,1.4006418E-1,-2.377864E-2,-3.376913E-2,-3.0344015E-2,-4.506283E-2,-4.4777416E-2,-4.0659744E-2,-2.046654E-2,-1.8097243E-3,1.5680123E-2,-3.8595255E-2,-1.3225827E-3,-1.3223848E-2,-1.4716404E-2,1.8101616E-2,-1.7420847E-2,1.8661473E-2,1.581036E-2,9.421462E-3],"categories":[],"categories_nodes":[],"categories_segments":[],"categories_sizes":[],"default_left":[0,0,0,0,0,0,0,0,0,0,0,0,0,0,0,0,0,0,0,0,0,0,0,0,0,0,0,0,0,0,0,0,0,0,0,0,0,0,0,0,0,0,0],"id":3,"left_children":[1,3,-1,5,7,9,-1,11,13,15,-1,17,19,21,23,25,-1,27,29,31,33,35,37,39,41,-1,-1,-1,-1,-1,-1,-1,-1,-1,-1,-1,-1,-1,-1,-1,-1,-1,-1],"loss_changes":[3.0385992E4,4.9863096E3,0E0,3.805786E1,2.3984224E3,5.148697E0,0E0,1.9649147E3,1.4739741E3,5.128975E-1,0E0,7.175049E0,9.0545166E1,1.1214982E3,4.3650977E2,2.0426178E-1,0E0,1.1271057E0,4.6433105E0,1.6864548E1,7.490149E1,2.674071E2,1.0351426E3,7.960931E2,3.9477246E2,0E0,0E0,0E0,0E0,0E0,0E0,0E0,0E0,0E0,0E0,0E0,0E0,0E0,0E0,0E0,0E0,0E0,0E0],"parents":[2147483647,0,0,1,1,3,3,4,4,5,5,7,7,8,8,9,9,11,11,12,12,13,13,14,14,15,15,17,17,18,18,19,19,20,20,21,21,22,22,23,23,24,24],"right_children":[2,4,-1,6,8,10,-1,12,14,16,-1,18,20,22,24,26,-1,28,30,32,34,36,38,40,42,-1,-1,-1,-1,-1,-1,-1,-1,-1,-1,-1,-1,-1,-1,-1,-1,-1,-1],"split_conditions":[2E0,1E0,-4.5853686E-2,2.209164E-2,2.2095157E-2,1E0,-4.584422E-2,1E0,1E0,1E0,-4.4221025E-2,1E0,2.209311E-2,1E0,2.2098271E-2,1E0,-4.375511E-2,1E0,1E0,2.2092264E-2,1E0,2.2180462E-2,1E0,1E0,2.2205098E-2,-2.377864E-2,-3.376913E-2,-3.0344015E-2,-4.506283E-2,-4.4777416E-2,-4.0659744E-2,-2.046654E-2,-1.8097243E-3,1.5680123E-2,-3.8595255E-2,-1.3225827E-3,-1.3223848E-2,-1.4716404E-2,1.8101616E-2,-1.7420847E-2,1.8661473E-2,1.581036E-2,9.421462E-3],"split_indices":[0,0,0,1,1,5,0,2,11,7,0,11,1,2,1,2,0,3,5,1,8,1,10,2,1,0,0,0,0,0,0,0,0,0,0,0,0,0,0,0,0,0,0],"split_type":[0,0,0,0,0,0,0,0,0,0,0,0,0,0,0,0,0,0,0,0,0,0,0,0,0,0,0,0,0,0,0,0,0,0,0,0,0,0,0,0,0,0,0],"sum_hessian":[8.08863E5,6.86251E5,1.22612E5,1.7437E4,6.68814E5,1.157E3,1.628E4,2.7602E4,6.41212E5,1.005E3,1.52E2,1.527E4,1.2332E4,1.39434E5,5.01778E5,9.91E2,1.4E1,5.64E2,1.4706E4,2.116E3,1.0216E4,7.7679E4,6.1755E4,2.4464E4,4.77314E5,9.65E2,2.6E1,5.01E2,6.3E1,1.0838E4,3.868E3,7.5E2,1.366E3,9.956E3,2.6E2,4.532E4,3.2359E4,1.1906E4,4.9849E4,1.2442E4,1.2022E4,3.4254E5,1.34774E5],"tree_param":{"num_deleted":"0","num_feature":"12","num_nodes":"43","size_leaf_vector":"1"}},{"base_weights":[-2.4088622E-6,7.373154E-2,-4.1268352E-2,-4.013898E-1,8.611926E-2,-2.4342161E-1,-4.126008E-2,-1.5026154E-1,9.844365E-2,-2.1962789E-1,-3.9827824E-2,-3.827157E-1,1.0501054E-1,1.4817462E-2,1.2164482E-1,-2.1672879E-1,-3.9671298E-2,-3.9494446E-1,-3.4692663E-1,1.1707846E-1,-3.7078372E-1,-5.600816E-2,1.05494365E-1,1.3342619E-1,7.5047106E-2,-2.140324E-2,-3.051729E-2,-2.8266182E-2,-4.0113892E-2,-3.7364572E-2,-2.1877317E-2,-7.2910534E-3,1.4693426E-2,1.7402263E-2,-3.768645E-2,-4.290321E-3,-2.8458474E-2,1.5704094E-2,-1.5409894E-2,3.6133048E-3,1.4150565E-2,6.063239E-3,1.1578507E-2],"categories":[],"categories_nodes":[],"categories_segments":[],"categories_sizes":[],"default_left":[0,0,0,0,0,0,0,0,0,0,0,0,0,0,0,0,0,0,0,0,0,0,0,0,0,0,0,0,0,0,0,0,0,0,0,0,0,0,0,0,0,0,0],"id":4,"left_children":[1,3,-1,5,7,9,-1,11,13,15,-1,17,19,21,23,25,-1,27,29,31,33,35,37,39,41,-1,-1,-1,-1,-1,-1,-1,-1,-1,-1,-1,-1,-1,-1,-1,-1,-1,-1],"loss_changes":[2.4612635E4,4.0390872E3,0E0,3.0781738E1,1.94844E3,4.1793137E0,0E0,1.9667146E3,1.2333467E3,4.304886E-1,0E0,7.455078E0,9.074739E1,8.866551E2,2.7317334E2,1.7125702E-1,0E0,8.8741455E0,1.5073547E1,8.740344E1,1.3609009E0,2.3218277E2,8.101856E2,3.122173E2,5.8965088E1,0E0,0E0,0E0,0E0,0E0,0E0,0E0,0E0,0E0,0E0,0E0,0E0,0E0,0E0,0E0,0E0,0E0,0E0],"parents":[2147483647,0,0,1,1,3,3,4,4,5,5,7,7,8,8,9,9,11,11,12,12,13,13,14,14,15,15,17,17,18,18,19,19,20,20,21,21,22,22,23,23,24,24],"right_children":[2,4,-1,6,8,10,-1,12,14,16,-1,18,20,22,24,26,-1,28,30,32,34,36,38,40,42,-1,-1,-1,-1,-1,-1,-1,-1,-1,-1,-1,-1,-1,-1,-1,-1,-1,-1],"split_conditions":[2E0,1E0,-4.1268352E-2,2.209164E-2,2.2095688E-2,1E0,-4.126008E-2,1E0,1E0,1E0,-3.9827824E-2,1E0,1E0,1E0,2.2243433E-2,1E0,-3.9671298E-2,1E0,2.2094898E-2,2.209311E-2,2.209164E-2,1E0,1E0,2.2099603E-2,1E0,-2.140324E-2,-3.051729E-2,-2.8266182E-2,-4.0113892E-2,-3.7364572E-2,-2.1877317E-2,-7.2910534E-3,1.4693426E-2,1.7402263E-2,-3.768645E-2,-4.290321E-3,-2.8458474E-2,1.5704094E-2,-1.5409894E-2,3.6133048E-3,1.4150565E-2,6.063239E-3,1.1578507E-2],"split_indices":[0,0,0,1,1,5,0,2,11,7,0,5,8,2,1,2,0,11,1,1,1,3,8,1,2,0,0,0,0,0,0,0,0,0,0,0,0,0,0,0,0,0,0],"split_type":[0,0,0,0,0,0,0,0,0,0,0,0,0,0,0,0,0,0,0,0,0,0,0,0,0,0,0,0,0,0,0,0,0,0,0,0,0,0,0,0,0,0,0],"sum_hessian":[8.08863E5,6.86251E5,1.22612E5,1.7437E4,6.68814E5,1.157E3,1.628E4,3.3142E4,6.35672E5,1.005E3,1.52E2,1.7346E4,1.5796E4,1.38058E5,4.97614E5,9.91E2,1.4E1,1.2921E4,4.425E3,1.5406E4,3.9E2,7.7514E4,6.0544E4,3.9719E5,1.00424E5,9.65E2,2.6E1,6.78E2,1.2243E4,3.66E3,7.65E2,2.092E3,1.3314E4,4E0,3.86E2,7.3312E4,4.202E3,5.0514E4,1.003E4,3.0455E4,3.66735E5,7.4179E4,2.6245E4],"tree_param":{"num_deleted":"0","num_feature":"12","num_nodes":"43","size_leaf_vector":"1"}},{"base_weights":[-2.597804E-6,6.635794E-2,-3.714155E-2,-3.6126074E-1,7.750713E-2,-2.1919294E-1,-3.7134327E-2,-1.3523962E-1,8.8599294E-2,-1.9775614E-1,-3.5871074E-2,-3.444515E-1,9.450866E-2,1.33354915E-2,1.0948041E-1,-1.9510825E-1,-3.5968643E-2,-3.6379063E-1,-3.2594952E-1,1.0537109E-1,-3.3375722E-1,-5.0407745E-2,9.494493E-2,1.20083615E-1,6.754258E-2,-1.926513E-2,-2.757859E-2,-2.4765436E-2,-3.6578294E-2,-3.4742467E-2,-2.6055515E-2,-1.17030535E-2,1.2621919E-2,1.601008E-2,-3.392754E-2,-5.174291E-4,-1.13526145E-2,-1.188715E-2,1.466582E-2,2.8747316E-3,1.2710626E-2,5.4569254E-3,1.0420701E-2],"categories":[],"categories_nodes":[],"categories_segments":[],"categories_sizes":[],"default_left":[0,0,0,0,0,0,0,0,0,0,0,0,0,0,0,0,0,0,0,0,0,0,0,0,0,0,0,0,0,0,0,0,0,0,0,0,0,0,0,0,0,0,0],"id":5,"left_children":[1,3,-1,5,7,9,-1,11,13,15,-1,17,19,21,23,25,-1,27,29,31,33,35,37,39,41,-1,-1,-1,-1,-1,-1,-1,-1,-1,-1,-1,-1,-1,-1,-1,-1,-1,-1],"loss_changes":[1.9936225E4,3.2718052E3,0E0,2.4896973E1,1.5782959E3,3.3924294E0,0E0,1.593086E3,9.990176E2,3.611641E-1,0E0,6.088379E0,7.3522934E1,7.181946E2,2.2126904E2,1.435051E-1,0E0,1.8699951E0,1.2373169E1,7.145166E1,1.1198692E0,2.2130963E2,6.6947235E2,2.5476367E2,4.776245E1,0E0,0E0,0E0,0E0,0E0,0E0,0E0,0E0,0E0,0E0,0E0,0E0,0E0,0E0,0E0,0E0,0E0,0E0],"parents":[2147483647,0,0,1,1,3,3,4,4,5,5,7,7,8,8,9,9,11,11,12,12,13,13,14,14,15,15,17,17,18,18,19,19,20,20,21,21,22,22,23,23,24,24],"right_children":[2,4,-1,6,8,10,-1,12,14,16,-1,18,20,22,24,26,-1,28,30,32,34,36,38,40,42,-1,-1,-1,-1,-1,-1,-1,-1,-1,-1,-1,-1,-1,-1,-1,-1,-1,-1],"split_conditions":[2E0,1E0,-3.714155E-2,2.209164E-2,2.2095688E-2,1E0,-3.7134327E-2,1E0,1E0,1E0,-3.5871074E-2,2.2093466E-2,1E0,1E0,2.2243433E-2,1E0,-3.5968643E-2,1E0,1E0,2.2092711E-2,2.209164E-2,2.2180462E-2,1E0,2.2099335E-2,1E0,-1.926513E-2,-2.757859E-2,-2.4765436E-2,-3.6578294E-2,-3.4742467E-2,-2.6055515E-2,-1.17030535E-2,1.2621919E-2,1.601008E-2,-3.392754E-2,-5.174291E-4,-1.13526145E-2,-1.188715E-2,1.466582E-2,2.8747316E-3,1.2710626E-2,5.4569254E-3,1.0420701E-2],"split_indices":[0,0,0,1,1,5,0,2,11,7,0,1,8,2,1,2,0,11,5,1,1,1,10,1,2,0,0,0,0,0,0,0,0,0,0,0,0,0,0,0,0,0,0],"split_type":[0,0,0,0,0,0,0,0,0,0,0,0,0,0,0,0,0,0,0,0,0,0,0,0,0,0,0,0,0,0,0,0,0,0,0,0,0,0,0,0,0,0,0],"sum_hessian":[8.08863E5,6.86251E5,1.22612E5,1.7437E4,6.68814E5,1.157E3,1.628E4,3.3142E4,6.35672E5,1.005E3,1.52E2,1.7346E4,1.5796E4,1.38058E5,4.97614E5,9.91E2,1.4E1,8.472E3,8.874E3,1.5406E4,3.9E2,7.7514E4,6.0544E4,3.9719E5,1.00424E5,9.65E2,2.6E1,1.45E2,8.327E3,6.677E3,2.197E3,1.32E3,1.4086E4,4E0,3.86E2,4.5155E4,3.2359E4,1.1791E4,4.8753E4,2.8359E4,3.68831E5,7.4179E4,2.6245E4],"tree_param":{"num_deleted":"0","num_feature":"12","num_nodes":"43","size_leaf_vector":"1"}},{"base_weights":[-2.7232566E-6,5.972174E-2,-3.342743E-2,-3.251436E-1,6.975624E-2,-1.9737615E-1,-3.342112E-2,-1.4139275E-1,7.8845695E-2,-1.7806286E-1,-3.2307412E-2,-3.1599936E-1,7.482057E-2,8.479761E-2,-1.4500332E-1,-1.7564465E-1,-3.261157E-2,-2.2868872E-1,-3.193321E-1,-6.535907E-2,1.03858985E-1,6.452677E-2,1.3100736E-1,-1.1605362E-1,-3.4119678E-1,-1.7340614E-2,-2.4922874E-2,-2.1340147E-2,-3.4502488E-2,-3.271179E-2,-2.9743774E-2,-8.811048E-3,2.0082874E-2,1.1381003E-2,-2.761656E-2,-3.4519874E-3,8.39591E-3,1.540568E-2,1.0519793E-2,-1.0497779E-2,-3.3286773E-2,-3.8096704E-2,-2.3211813E-2],"categories":[],"categories_nodes":[],"categories_segments":[],"categories_sizes":[],"default_left":[0,0,0,0,0,0,0,0,0,0,0,0,0,0,0,0,0,0,0,0,0,0,0,0,0,0,0,0,0,0,0,0,0,0,0,0,0,0,0,0,0,0,0],"id":6,"left_children":[1,3,-1,5,7,9,-1,11,13,15,-1,17,19,21,23,25,-1,27,29,31,33,35,37,39,41,-1,-1,-1,-1,-1,-1,-1,-1,-1,-1,-1,-1,-1,-1,-1,-1,-1,-1],"loss_changes":[1.6148334E4,2.6502798E3,0E0,2.0136597E1,1.2836204E3,2.7536812E0,0E0,1.0420999E3,8.5432056E2,3.0289078E-1,0E0,4.3704834E0,5.0209435E1,5.850669E2,9.428955E1,1.20183945E-1,0E0,9.3120193E-1,2.409912E0,1.2838563E1,3.8668472E1,8.3562854E2,1.1328125E2,3.4722855E1,9.173401E0,0E0,0E0,0E0,0E0,0E0,0E0,0E0,0E0,0E0,0E0,0E0,0E0,0E0,0E0,0E0,0E0,0E0,0E0],"parents":[2147483647,0,0,1,1,3,3,4,4,5,5,7,7,8,8,9,9,11,11,12,12,13,13,14,14,15,15,17,17,18,18,19,19,20,20,21,21,22,22,23,23,24,24],"right_children":[2,4,-1,6,8,10,-1,12,14,16,-1,18,20,22,24,26,-1,28,30,32,34,36,38,40,42,-1,-1,-1,-1,-1,-1,-1,-1,-1,-1,-1,-1,-1,-1,-1,-1,-1,-1],"split_conditions":[2E0,1E0,-3.342743E-2,2.209164E-2,2.2095157E-2,1E0,-3.342112E-2,1E0,1E0,1E0,-3.2307412E-2,1E0,2.209311E-2,1E0,1E0,1E0,-3.261157E-2,1E0,1E0,1E0,1E0,1E0,2.2133008E-2,1E0,2.2174122E-2,-1.7340614E-2,-2.4922874E-2,-2.1340147E-2,-3.4502488E-2,-3.271179E-2,-2.9743774E-2,-8.811048E-3,2.0082874E-2,1.1381003E-2,-2.761656E-2,-3.4519874E-3,8.39591E-3,1.540568E-2,1.0519793E-2,-1.0497779E-2,-3.3286773E-2,-3.8096704E-2,-2.3211813E-2],"split_indices":[0,0,0,1,1,5,0,2,8,7,0,11,1,2,3,2,0,3,5,10,8,11,1,5,1,0,0,0,0,0,0,0,0,0,0,0,0,0,0,0,0,0,0],"split_type":[0,0,0,0,0,0,0,0,0,0,0,0,0,0,0,0,0,0,0,0,0,0,0,0,0,0,0,0,0,0,0,0,0,0,0,0,0,0,0,0,0,0,0],"sum_hessian":[8.08863E5,6.86251E5,1.22612E5,1.7437E4,6.68814E5,1.157E3,1.628E4,2.7602E4,6.41212E5,1.005E3,1.52E2,1.527E4,1.2332E4,6.24605E5,1.6607E4,9.91E2,1.4E1,5.64E2,1.4706E4,2.116E3,1.0216E4,4.34156E5,1.90449E5,1.4473E4,2.134E3,9.65E2,2.6E1,5.01E2,6.3E1,1.0838E4,3.868E3,1.95E3,1.66E2,9.956E3,2.6E2,7.1208E4,3.62948E5,1.00601E5,8.9848E4,1.3771E4,7.02E2,1.562E3,5.72E2],"tree_param":{"num_deleted":"0","num_feature":"12","num_nodes":"43","size_leaf_vector":"1"}},{"base_weights":[-2.9083849E-6,5.374908E-2,-3.0084712E-2,-2.9263732E-1,6.278033E-2,-1.777311E-1,-3.0079214E-2,-1.11908145E-1,7.188821E-2,-1.6033101E-1,-2.9097784E-2,-2.8302944E-1,7.601063E-2,7.722067E-2,-1.287322E-1,-1.5812281E-1,-2.9567823E-2,-2.9238486E-1,-2.5565165E-1,8.5006975E-2,-2.786766E-1,5.9632577E-2,1.17843255E-1,-1.02592655E-1,-3.0673513E-1,-1.5721064E-2,-3.4412693E-2,-2.0184878E-2,-2.9738173E-2,-2.92545E-2,-2.0553306E-2,-2.7190621E-3,1.1347628E-2,1.5434155E-2,-2.8355107E-2,-3.075224E-3,7.742883E-3,1.4034892E-2,9.561821E-3,-1.0676647E-2,4.1966725E-2,-3.430387E-2,-2.0894682E-2],"categories":[],"categories_nodes":[],"categories_segments":[],"categories_sizes":[],"default_left":[0,0,0,0,0,0,0,0,0,0,0,0,0,0,0,0,0,0,0,0,0,0,0,0,0,0,0,0,0,0,0,0,0,0,0,0,0,0,0,0,0,0,0],"id":7,"left_children":[1,3,-1,5,7,9,-1,11,13,15,-1,17,19,21,23,25,-1,27,29,31,33,35,37,39,41,-1,-1,-1,-1,-1,-1,-1,-1,-1,-1,-1,-1,-1,-1,-1,-1,-1,-1],"loss_changes":[1.3080135E4,2.1468203E3,0E0,1.6286621E1,1.0641216E3,2.2351913E0,0E0,1.0657976E3,6.800532E2,2.5391388E-1,0E0,4.368408E0,5.0430153E1,4.4240576E2,7.655087E1,1.1421013E-1,0E0,5.7857666E0,8.123718E0,4.9215927E1,8.690567E-1,6.95079E2,9.356787E1,3.1331665E1,7.40831E0,0E0,0E0,0E0,0E0,0E0,0E0,0E0,0E0,0E0,0E0,0E0,0E0,0E0,0E0,0E0,0E0,0E0,0E0],"parents":[2147483647,0,0,1,1,3,3,4,4,5,5,7,7,8,8,9,9,11,11,12,12,13,13,14,14,15,15,17,17,18,18,19,19,20,20,21,21,22,22,23,23,24,24],"right_children":[2,4,-1,6,8,10,-1,12,14,16,-1,18,20,22,24,26,-1,28,30,32,34,36,38,40,42,-1,-1,-1,-1,-1,-1,-1,-1,-1,-1,-1,-1,-1,-1,-1,-1,-1,-1],"split_conditions":[2E0,1E0,-3.0084712E-2,2.209164E-2,2.2095688E-2,1E0,-3.0079214E-2,1E0,1E0,1E0,-2.9097784E-2,1E0,1E0,1E0,1E0,1E0,-2.9567823E-2,1E0,2.2093775E-2,2.2093466E-2,2.209164E-2,1E0,2.2129627E-2,1E0,2.2174122E-2,-1.5721064E-2,-3.4412693E-2,-2.0184878E-2,-2.9738173E-2,-2.92545E-2,-2.0553306E-2,-2.7190621E-3,1.1347628E-2,1.5434155E-2,-2.8355107E-2,-3.075224E-3,7.742883E-3,1.4034892E-2,9.561821E-3,-1.0676647E-2,4.1966725E-2,-3.430387E-2,-2.0894682E-2],"split_indices":[0,0,0,1,1,5,0,2,8,7,0,5,8,2,3,6,0,11,1,1,1,11,1,6,1,0,0,0,0,0,0,0,0,0,0,0,0,0,0,0,0,0,0],"split_type":[0,0,0,0,0,0,0,0,0,0,0,0,0,0,0,0,0,0,0,0,0,0,0,0,0,0,0,0,0,0,0,0,0,0,0,0,0,0,0,0,0,0,0],"sum_hessian":[8.08863E5,6.86251E5,1.22612E5,1.7437E4,6.68814E5,1.157E3,1.628E4,3.3142E4,6.35672E5,1.005E3,1.52E2,1.7346E4,1.5796E4,6.19214E5,1.6458E4,9.91E2,1.4E1,1.2921E4,4.425E3,1.5406E4,3.9E2,4.32123E5,1.87091E5,1.4352E4,2.106E3,9.88E2,3E0,6.78E2,1.2243E4,2.546E3,1.879E3,3.118E3,1.2288E4,4E0,3.86E2,7.1086E4,3.61037E5,9.2956E4,9.4135E4,1.4239E4,1.13E2,1.534E3,5.72E2],"tree_param":{"num_deleted":"0","num_feature":"12","num_nodes":"43","size_leaf_vector":"1"}},{"base_weights":[-2.9485377E-6,4.8373826E-2,-2.7076265E-2,-2.6338154E-1,5.6502145E-2,-1.6005196E-1,-2.7071476E-2,-7.662834E-2,6.652007E-2,-1.4437716E-1,-2.6207024E-2,-2.4344867E-1,8.1902824E-2,8.409083E-3,8.2548745E-2,-1.4236109E-1,-2.6808158E-2,-2.5504664E-1,-1.771961E-1,9.3055464E-2,-2.81429E-1,-3.560962E-2,6.7324564E-2,9.632799E-2,5.3043645E-2,-1.4032066E-2,-2.1009013E-2,-2.658149E-2,-2.2361128E-2,-2.0334896E-2,-9.28791E-3,-2.447245E-3,1.1122665E-2,-2.2291236E-2,-3.1947035E-2,3.2959399E-3,-7.3679867E-3,-8.584351E-3,1.053998E-2,4.069561E-3,1.0325447E-2,5.4442505E-3,-1.9066436E-2],"categories":[],"categories_nodes":[],"categories_segments":[],"categories_sizes":[],"default_left":[0,0,0,0,0,0,0,0,0,0,0,0,0,0,0,0,0,0,0,0,0,0,0,0,0,0,0,0,0,0,0,0,0,0,0,0,0,0,0,0,0,0,0],"id":8,"left_children":[1,3,-1,5,7,9,-1,11,13,15,-1,17,19,21,23,25,-1,27,29,31,33,35,37,39,41,-1,-1,-1,-1,-1,-1,-1,-1,-1,-1,-1,-1,-1,-1,-1,-1,-1,-1],"loss_changes":[1.0594903E4,1.7390098E3,0E0,1.3170166E1,8.9199756E2,1.81394E0,0E0,1.2378619E3,5.7936597E2,2.1273041E-1,0E0,1.7479492E1,9.7276794E1,3.487528E2,1.9820557E2,1.076107E-1,0E0,6.5098877E0,7.4807663E0,4.9732803E1,1.5204124E0,2.0092795E2,3.353905E2,1.2805469E2,5.2921844E1,0E0,0E0,0E0,0E0,0E0,0E0,0E0,0E0,0E0,0E0,0E0,0E0,0E0,0E0,0E0,0E0,0E0,0E0],"parents":[2147483647,0,0,1,1,3,3,4,4,5,5,7,7,8,8,9,9,11,11,12,12,13,13,14,14,15,15,17,17,18,18,19,19,20,20,21,21,22,22,23,23,24,24],"right_children":[2,4,-1,6,8,10,-1,12,14,16,-1,18,20,22,24,26,-1,28,30,32,34,36,38,40,42,-1,-1,-1,-1,-1,-1,-1,-1,-1,-1,-1,-1,-1,-1,-1,-1,-1,-1],"split_conditions":[2E0,1E0,-2.7076265E-2,2.209164E-2,2.2096975E-2,1E0,-2.7071476E-2,1E0,1E0,1E0,-2.6207024E-2,2.2096202E-2,1E0,1E0,2.2188837E-2,1E0,-2.6808158E-2,1E0,1E0,2.2093466E-2,2.2095157E-2,2.2133008E-2,1E0,2.2101684E-2,1E0,-1.4032066E-2,-2.1009013E-2,-2.658149E-2,-2.2361128E-2,-2.0334896E-2,-9.28791E-3,-2.447245E-3,1.1122665E-2,-2.2291236E-2,-3.1947035E-2,3.2959399E-3,-7.3679867E-3,-8.584351E-3,1.053998E-2,4.069561E-3,1.0325447E-2,5.4442505E-3,-1.9066436E-2],"split_indices":[0,0,0,1,1,5,0,2,11,7,0,1,8,2,1,2,0,5,5,1,1,1,10,1,6,0,0,0,0,0,0,0,0,0,0,0,0,0,0,0,0,0,0],"split_type":[0,0,0,0,0,0,0,0,0,0,0,0,0,0,0,0,0,0,0,0,0,0,0,0,0,0,0,0,0,0,0,0,0,0,0,0,0,0,0,0,0,0,0],"sum_hessian":[8.08863E5,6.86251E5,1.22612E5,1.7437E4,6.68814E5,1.157E3,1.628E4,4.6805E4,6.22009E5,1.005E3,1.52E2,2.2806E4,2.3999E4,1.34476E5,4.87533E5,9.91E2,1.4E1,1.9406E4,3.4E3,2.3285E4,7.14E2,7.6969E4,5.7507E4,3.32329E5,1.55204E5,9.65E2,2.6E1,1.4449E4,4.957E3,2.594E3,8.06E2,3.118E3,2.0167E4,2.84E2,4.3E2,2.7478E4,4.9491E4,1.1449E4,4.6058E4,3.6796E4,2.95533E5,1.54319E5,8.85E2],"tree_param":{"num_deleted":"0","num_feature":"12","num_nodes":"43","size_leaf_vector":"1"}},{"base_weights":[-2.9785012E-6,4.35361E-2,-2.4368662E-2,-2.3704998E-1,5.085175E-2,-1.4412278E-1,-2.4364496E-2,-6.896815E-2,5.986807E-2,-1.300009E-1,-2.3603449E-2,-2.1910726E-1,7.3710665E-2,7.5681414E-3,7.429389E-2,-1.2816028E-1,-2.4306064E-2,-2.2954449E-1,-1.594852E-1,8.375031E-2,-2.5336194E-1,-3.2048732E-2,6.0592122E-2,8.1461035E-2,2.56182E-2,-1.2730417E-2,-3.0779338E-2,-2.3923524E-2,-2.012547E-2,-1.8302187E-2,-8.360271E-3,-9.281315E-3,9.436474E-3,-2.0069933E-2,-2.8759742E-2,-1.8432377E-4,-1.0613694E-2,-7.7259885E-3,9.486002E-3,3.5091538E-3,8.558958E-3,1.0002377E-3,6.7916936E-3],"categories":[],"categories_nodes":[],"categories_segments":[],"categories_sizes":[],"default_left":[0,0,0,0,0,0,0,0,0,0,0,0,0,0,0,0,0,0,0,0,0,0,0,0,0,0,0,0,0,0,0,0,0,0,0,0,0,0,0,0,0,0,0],"id":9,"left_children":[1,3,-1,5,7,9,-1,11,13,15,-1,17,19,21,23,25,-1,27,29,31,33,35,37,39,41,-1,-1,-1,-1,-1,-1,-1,-1,-1,-1,-1,-1,-1,-1,-1,-1,-1,-1],"loss_changes":[8.581864E3,1.4086608E3,0E0,1.0651855E1,7.2254785E2,1.4723606E0,0E0,1.0026787E3,4.6928687E2,1.7819786E-1,0E0,1.4156128E1,7.8829865E1,2.824903E2,1.7008203E2,1.13370895E-1,0E0,5.272278E0,6.05896E0,4.364955E1,1.2313728E0,1.7224872E2,2.7166925E2,8.135083E1,4.13313E1,0E0,0E0,0E0,0E0,0E0,0E0,0E0,0E0,0E0,0E0,0E0,0E0,0E0,0E0,0E0,0E0,0E0,0E0],"parents":[2147483647,0,0,1,1,3,3,4,4,5,5,7,7,8,8,9,9,11,11,12,12,13,13,14,14,15,15,17,17,18,18,19,19,20,20,21,21,22,22,23,23,24,24],"right_children":[2,4,-1,6,8,10,-1,12,14,16,-1,18,20,22,24,26,-1,28,30,32,34,36,38,40,42,-1,-1,-1,-1,-1,-1,-1,-1,-1,-1,-1,-1,-1,-1,-1,-1,-1,-1],"split_conditions":[2E0,1E0,-2.4368662E-2,2.209164E-2,2.2096975E-2,1E0,-2.4364496E-2,1E0,1E0,1E0,-2.3603449E-2,2.2096202E-2,1E0,1E0,2.2318352E-2,1E0,-2.4306064E-2,1E0,1E0,2.2092711E-2,2.2095157E-2,2.223278E-2,1E0,2.2101425E-2,1E0,-1.2730417E-2,-3.0779338E-2,-2.3923524E-2,-2.012547E-2,-1.8302187E-2,-8.360271E-3,-9.281315E-3,9.436474E-3,-2.0069933E-2,-2.8759742E-2,-1.8432377E-4,-1.0613694E-2,-7.7259885E-3,9.486002E-3,3.5091538E-3,8.558958E-3,1.0002377E-3,6.7916936E-3],"split_indices":[0,0,0,1,1,5,0,2,11,7,0,1,8,2,1,6,0,5,5,1,1,1,10,1,2,0,0,0,0,0,0,0,0,0,0,0,0,0,0,0,0,0,0],"split_type":[0,0,0,0,0,0,0,0,0,0,0,0,0,0,0,0,0,0,0,0,0,0,0,0,0,0,0,0,0,0,0,0,0,0,0,0,0,0,0,0,0,0,0],"sum_hessian":[8.08863E5,6.86251E5,1.22612E5,1.7437E4,6.68814E5,1.157E3,1.628E4,4.6805E4,6.22009E5,1.005E3,1.52E2,2.2806E4,2.3999E4,1.34476E5,4.87533E5,9.91E2,1.4E1,1.9406E4,3.4E3,2.3285E4,7.14E2,7.6969E4,5.7507E4,4.2496E5,6.2573E4,9.88E2,3E0,1.4449E4,4.957E3,2.594E3,8.06E2,1.32E3,2.1965E4,2.84E2,4.3E2,5.4678E4,2.2291E4,1.1449E4,4.6058E4,3.4744E4,3.90216E5,4.5702E4,1.6871E4],"tree_param":{"num_deleted":"0","num_feature":"12","num_nodes":"43","size_leaf_vector":"1"}},{"base_weights":[-2.9779208E-6,3.918218E-2,-2.1931816E-2,-2.1335162E-1,4.5766428E-2,-1.2978947E-1,-2.1928195E-2,-6.2073894E-2,5.3881295E-2,-1.1706824E-1,-2.1258531E-2,-1.9719963E-1,6.6337556E-2,5.7910003E-2,-9.862415E-2,-1.15388125E-1,-2.2037499E-2,-2.0659232E-1,-1.4354451E-1,7.5375274E-2,-2.2809404E-1,7.404212E-2,2.4293156E-2,-7.361979E-2,-2.6999915E-1,-1.1458664E-2,-2.8470887E-2,-1.3468148E-2,-2.1011062E-2,-1.6472673E-2,-7.52528E-3,-1.4184712E-2,8.251119E-3,-1.8069983E-2,-2.589044E-2,6.214671E-3,1.0007625E-2,-4.591287E-3,4.181259E-3,-6.3087097E-3,-2.7627507E-2,-3.3465527E-2,-2.1499602E-2],"categories":[],"categories_nodes":[],"categories_segments":[],"categories_sizes":[],"default_left":[0,0,0,0,0,0,0,0,0,0,0,0,0,0,0,0,0,0,0,0,0,0,0,0,0,0,0,0,0,0,0,0,0,0,0,0,0,0,0,0,0,0,0],"id":10,"left_children":[1,3,-1,5,7,9,-1,11,13,15,-1,17,19,21,23,25,-1,27,29,31,33,35,37,39,41,-1,-1,-1,-1,-1,-1,-1,-1,-1,-1,-1,-1,-1,-1,-1,-1,-1,-1],"loss_changes":[6.9513037E3,1.1410721E3,0E0,8.612976E0,5.852899E2,1.1947937E0,0E0,8.1217633E2,3.8216882E2,1.491785E-1,0E0,1.1464294E1,6.3880928E1,3.2863977E2,6.858063E1,1.0199928E-1,0E0,4.881714E0,4.9073944E0,3.6106903E1,9.9728394E-1,1.2680835E2,2.4170328E2,2.9805893E1,7.175766E0,0E0,0E0,0E0,0E0,0E0,0E0,0E0,0E0,0E0,0E0,0E0,0E0,0E0,0E0,0E0,0E0,0E0,0E0],"parents":[2147483647,0,0,1,1,3,3,4,4,5,5,7,7,8,8,9,9,11,11,12,12,13,13,14,14,15,15,17,17,18,18,19,19,20,20,21,21,22,22,23,23,24,24],"right_children":[2,4,-1,6,8,10,-1,12,14,16,-1,18,20,22,24,26,-1,28,30,32,34,36,38,40,42,-1,-1,-1,-1,-1,-1,-1,-1,-1,-1,-1,-1,-1,-1,-1,-1,-1,-1],"split_conditions":[2E0,1E0,-2.1931816E-2,2.209164E-2,2.2096975E-2,1E0,-2.1928195E-2,1E0,1E0,1E0,-2.1258531E-2,2.2096202E-2,1E0,2.2187399E-2,1E0,1E0,-2.2037499E-2,1E0,1E0,2.2092264E-2,2.2095157E-2,1E0,1E0,1E0,2.2131229E-2,-1.1458664E-2,-2.8470887E-2,-1.3468148E-2,-2.1011062E-2,-1.6472673E-2,-7.52528E-3,-1.4184712E-2,8.251119E-3,-1.8069983E-2,-2.589044E-2,6.214671E-3,1.0007625E-2,-4.591287E-3,4.181259E-3,-6.3087097E-3,-2.7627507E-2,-3.3465527E-2,-2.1499602E-2],"split_indices":[0,0,0,1,1,5,0,2,8,7,0,1,8,1,3,6,0,11,5,1,1,2,11,5,1,0,0,0,0,0,0,0,0,0,0,0,0,0,0,0,0,0,0],"split_type":[0,0,0,0,0,0,0,0,0,0,0,0,0,0,0,0,0,0,0,0,0,0,0,0,0,0,0,0,0,0,0,0,0,0,0,0,0,0,0,0,0,0,0],"sum_hessian":[8.08863E5,6.86251E5,1.22612E5,1.7437E4,6.68814E5,1.157E3,1.628E4,4.6805E4,6.22009E5,1.005E3,1.52E2,2.2806E4,2.3999E4,6.06001E5,1.6008E4,9.91E2,1.4E1,1.9406E4,3.4E3,2.3285E4,7.14E2,4.09492E5,1.96509E5,1.3971E4,2.037E3,9.88E2,3E0,9.07E2,1.8499E4,2.594E3,8.06E2,7.4E2,2.2545E4,2.84E2,4.3E2,2.8107E5,1.28422E5,3.9244E4,1.57265E5,1.3282E4,6.89E2,9.34E2,1.103E3],"tree_param":{"num_deleted":"0","num_feature":"12","num_nodes":"43","size_leaf_vector":"1"}},{"base_weights":[-3.0654392E-6,3.526354E-2,-1.9738652E-2,-1.9202249E-1,4.118951E-2,-1.1688238E-1,-1.9735511E-2,-5.340745E-2,4.8742697E-2,-1.05423E-1,-1.9146573E-2,-1.7542534E-1,6.1238248E-2,4.6418803E-3,6.08959E-2,-1.03889555E-1,-1.9980665E-2,-1.8593487E-1,-1.305706E-1,6.994321E-2,-2.1470952E-1,-2.9096842E-2,5.0193843E-2,6.801739E-2,2.392624E-2,-1.0203019E-2,-1.6656602E-2,-1.9474696E-2,-1.6021468E-2,-1.4635836E-2,-7.881952E-3,-2.646329E-3,8.386025E-3,-1.6269324E-2,-2.4416503E-2,2.9030936E-3,-5.9080548E-3,-6.3613276E-3,7.862079E-3,6.862797E-3,-2.2668092E-2,1.2035625E-3,5.677217E-3],"categories":[],"categories_nodes":[],"categories_segments":[],"categories_sizes":[],"default_left":[0,0,0,0,0,0,0,0,0,0,0,0,0,0,0,0,0,0,0,0,0,0,0,0,0,0,0,0,0,0,0,0,0,0,0,0,0,0,0,0,0,0,0],"id":11,"left_children":[1,3,-1,5,7,9,-1,11,13,15,-1,17,19,21,23,25,-1,27,29,31,33,35,37,39,41,-1,-1,-1,-1,-1,-1,-1,-1,-1,-1,-1,-1,-1,-1,-1,-1,-1,-1],"loss_changes":[5.630545E3,9.2431433E2,0E0,6.9641724E0,4.778766E2,9.695339E-1,0E0,6.918141E2,3.319569E2,1.24842644E-1,0E0,1.1269104E1,6.126416E1,2.0564784E2,1.2783447E2,9.861183E-2,0E0,4.3673096E0,3.706787E0,3.316752E1,1.155365E0,1.3398259E2,1.8420694E2,7.3272095E1,3.0629627E1,0E0,0E0,0E0,0E0,0E0,0E0,0E0,0E0,0E0,0E0,0E0,0E0,0E0,0E0,0E0,0E0,0E0,0E0],"parents":[2147483647,0,0,1,1,3,3,4,4,5,5,7,7,8,8,9,9,11,11,12,12,13,13,14,14,15,15,17,17,18,18,19,19,20,20,21,21,22,22,23,23,24,24],"right_children":[2,4,-1,6,8,10,-1,12,14,16,-1,18,20,22,24,26,-1,28,30,32,34,36,38,40,42,-1,-1,-1,-1,-1,-1,-1,-1,-1,-1,-1,-1,-1,-1,-1,-1,-1,-1],"split_conditions":[2E0,1E0,-1.9738652E-2,2.209164E-2,2.2097228E-2,1E0,-1.9735511E-2,1E0,1E0,1E0,-1.9146573E-2,2.2096202E-2,1E0,1E0,2.2280397E-2,1E0,-1.9980665E-2,1E0,1E0,2.2093466E-2,2.2095157E-2,2.2130737E-2,1E0,1E0,1E0,-1.0203019E-2,-1.6656602E-2,-1.9474696E-2,-1.6021468E-2,-1.4635836E-2,-7.881952E-3,-2.646329E-3,8.386025E-3,-1.6269324E-2,-2.4416503E-2,2.9030936E-3,-5.9080548E-3,-6.3613276E-3,7.862079E-3,6.862797E-3,-2.2668092E-2,1.2035625E-3,5.677217E-3],"split_indices":[0,0,0,1,1,5,0,2,11,7,0,1,8,2,1,2,0,5,5,1,1,1,10,7,2,0,0,0,0,0,0,0,0,0,0,0,0,0,0,0,0,0,0],"split_type":[0,0,0,0,0,0,0,0,0,0,0,0,0,0,0,0,0,0,0,0,0,0,0,0,0,0,0,0,0,0,0,0,0,0,0,0,0,0,0,0,0,0,0],"sum_hessian":[8.08863E5,6.86251E5,1.22612E5,1.7437E4,6.68814E5,1.157E3,1.628E4,4.9453E4,6.19361E5,1.005E3,1.52E2,2.3956E4,2.5497E4,1.33808E5,4.85553E5,9.91E2,1.4E1,1.9406E4,4.55E3,2.4718E4,7.79E2,7.6872E4,5.6936E4,4.07127E5,7.8426E4,9.65E2,2.6E1,1.4449E4,4.957E3,3.485E3,1.065E3,3.118E3,2.16E4,2.84E2,4.95E2,2.6159E4,5.0713E4,1.1379E4,4.5557E4,4.06286E5,8.41E2,5.7582E4,2.0844E4],"tree_param":{"num_deleted":"0","num_feature":"12","num_nodes":"43","size_leaf_vector":"1"}},{"base_weights":[-3.0253805E-6,3.17369E-2,-1.7764803E-2,-1.7282516E-1,3.7070394E-2,-1.0525113E-1,-1.776208E-2,-4.806858E-2,4.3868396E-2,-9.492727E-2,-1.7244428E-2,-1.5788522E-1,5.511306E-2,4.1776802E-3,5.4806277E-2,-9.352769E-2,-1.8115802E-2,-1.6734321E-1,-1.17518485E-1,6.294913E-2,-1.9329073E-1,-2.618719E-2,4.5174476E-2,6.578005E-2,3.397842E-2,-9.277721E-3,-2.5570346E-2,-1.019955E-2,-1.705415E-2,-1.317267E-2,-7.0944973E-3,-4.6515535E-3,7.3071844E-3,-1.51375225E-2,-2.2369238E-2,-1.6893166E-3,-1.9068122E-2,-5.725251E-3,7.075887E-3,2.5251112E-3,7.2501334E-3,3.5123099E-3,-1.8041432E-2],"categories":[],"categories_nodes":[],"categories_segments":[],"categories_sizes":[],"default_left":[0,0,0,0,0,0,0,0,0,0,0,0,0,0,0,0,0,0,0,0,0,0,0,0,0,0,0,0,0,0,0,0,0,0,0,0,0,0,0,0,0,0,0],"id":12,"left_children":[1,3,-1,5,7,9,-1,11,13,15,-1,17,19,21,23,25,-1,27,29,31,33,35,37,39,41,-1,-1,-1,-1,-1,-1,-1,-1,-1,-1,-1,-1,-1,-1,-1,-1,-1,-1],"loss_changes":[4.5607354E3,7.4872833E2,0E0,5.632202E0,3.8709564E2,7.8692627E-1,0E0,5.60375E2,2.6888477E2,1.04468346E-1,0E0,9.126831E0,4.9644264E1,1.6657497E2,1.10976074E2,9.701252E-2,0E0,4.0386353E0,3.0021782E0,2.7394012E1,9.6009254E-1,1.175211E2,1.4920929E2,8.6624146E1,4.1125397E1,0E0,0E0,0E0,0E0,0E0,0E0,0E0,0E0,0E0,0E0,0E0,0E0,0E0,0E0,0E0,0E0,0E0,0E0],"parents":[2147483647,0,0,1,1,3,3,4,4,5,5,7,7,8,8,9,9,11,11,12,12,13,13,14,14,15,15,17,17,18,18,19,19,20,20,21,21,22,22,23,23,24,24],"right_children":[2,4,-1,6,8,10,-1,12,14,16,-1,18,20,22,24,26,-1,28,30,32,34,36,38,40,42,-1,-1,-1,-1,-1,-1,-1,-1,-1,-1,-1,-1,-1,-1,-1,-1,-1,-1],"split_conditions":[2E0,1E0,-1.7764803E-2,2.209164E-2,2.2097228E-2,1E0,-1.776208E-2,1E0,1E0,1E0,-1.7244428E-2,2.2096202E-2,1E0,1E0,2.2180462E-2,1E0,-1.8115802E-2,1E0,1E0,2.209311E-2,2.2095423E-2,1E0,1E0,2.2102999E-2,1E0,-9.277721E-3,-2.5570346E-2,-1.019955E-2,-1.705415E-2,-1.317267E-2,-7.0944973E-3,-4.6515535E-3,7.3071844E-3,-1.51375225E-2,-2.2369238E-2,-1.6893166E-3,-1.9068122E-2,-5.725251E-3,7.075887E-3,2.5251112E-3,7.2501334E-3,3.5123099E-3,-1.8041432E-2],"split_indices":[0,0,0,1,1,5,0,2,11,7,0,1,8,2,1,6,0,11,5,1,1,3,10,1,6,0,0,0,0,0,0,0,0,0,0,0,0,0,0,0,0,0,0],"split_type":[0,0,0,0,0,0,0,0,0,0,0,0,0,0,0,0,0,0,0,0,0,0,0,0,0,0,0,0,0,0,0,0,0,0,0,0,0,0,0,0,0,0,0],"sum_hessian":[8.08863E5,6.86251E5,1.22612E5,1.7437E4,6.68814E5,1.157E3,1.628E4,4.9453E4,6.19361E5,1.005E3,1.52E2,2.3956E4,2.5497E4,1.33808E5,4.85553E5,9.91E2,1.4E1,1.9406E4,4.55E3,2.4718E4,7.79E2,7.6872E4,5.6936E4,3.18002E5,1.67551E5,9.88E2,3E0,9.07E2,1.8499E4,3.485E3,1.065E3,2.092E3,2.2626E4,3.3E2,4.49E2,7.2762E4,4.11E3,1.1379E4,4.5557E4,4.5236E4,2.72766E5,1.66662E5,8.89E2],"tree_param":{"num_deleted":"0","num_feature":"12","num_nodes":"43","size_leaf_vector":"1"}},{"base_weights":[-2.9858088E-6,2.8562922E-2,-1.5988335E-2,-1.5554768E-1,3.3363193E-2,-9.478664E-2,-1.598598E-2,-4.326338E-2,3.9481517E-2,-8.548718E-2,-1.5531257E-2,-1.4209868E-1,4.9600396E-2,4.2539507E-2,-7.641077E-2,-8.421003E-2,-1.6424995E-2,-1.4944918E-1,-9.870184E-2,5.6654334E-2,-1.7400974E-1,5.270346E-2,7.818877E-3,-5.52627E-2,-2.2144507E-1,-8.3508855E-3,-2.3652568E-2,-1.5885754E-2,-1.2196927E-2,-9.5725125E-3,-3.2333415E-2,-1.2039351E-2,6.2123113E-3,-1.3628343E-2,-2.0137284E-2,4.3322463E-3,7.4159415E-3,-5.375891E-3,2.3802274E-3,-4.550451E-3,-2.4255944E-2,-2.5678867E-2,-1.2660216E-2],"categories":[],"categories_nodes":[],"categories_segments":[],"categories_sizes":[],"default_left":[0,0,0,0,0,0,0,0,0,0,0,0,0,0,0,0,0,0,0,0,0,0,0,0,0,0,0,0,0,0,0,0,0,0,0,0,0,0,0,0,0,0,0],"id":13,"left_children":[1,3,-1,5,7,9,-1,11,13,15,-1,17,19,21,23,25,-1,27,29,31,33,35,37,39,41,-1,-1,-1,-1,-1,-1,-1,-1,-1,-1,-1,-1,-1,-1,-1,-1,-1,-1],"loss_changes":[3.6941902E3,6.065013E2,0E0,4.5537415E0,3.135597E2,6.385126E-1,0E0,4.5390677E2,2.1950354E2,8.736324E-2,0E0,7.627228E0,4.022867E1,2.1295288E2,4.8826714E1,8.619547E-2,0E0,5.276825E0,2.2913284E0,2.3941284E1,7.7775764E-1,9.395215E1,1.3449326E2,2.5390015E1,6.758827E0,0E0,0E0,0E0,0E0,0E0,0E0,0E0,0E0,0E0,0E0,0E0,0E0,0E0,0E0,0E0,0E0,0E0,0E0],"parents":[2147483647,0,0,1,1,3,3,4,4,5,5,7,7,8,8,9,9,11,11,12,12,13,13,14,14,15,15,17,17,18,18,19,19,20,20,21,21,22,22,23,23,24,24],"right_children":[2,4,-1,6,8,10,-1,12,14,16,-1,18,20,22,24,26,-1,28,30,32,34,36,38,40,42,-1,-1,-1,-1,-1,-1,-1,-1,-1,-1,-1,-1,-1,-1,-1,-1,-1,-1],"split_conditions":[2E0,1E0,-1.5988335E-2,2.209164E-2,2.2097228E-2,1E0,-1.598598E-2,1E0,1E0,1E0,-1.5531257E-2,2.2096446E-2,1E0,2.223278E-2,1E0,1E0,-1.6424995E-2,1E0,1E0,2.2092264E-2,2.2095423E-2,1E0,1E0,1E0,2.2176595E-2,-8.3508855E-3,-2.3652568E-2,-1.5885754E-2,-1.2196927E-2,-9.5725125E-3,-3.2333415E-2,-1.2039351E-2,6.2123113E-3,-1.3628343E-2,-2.0137284E-2,4.3322463E-3,7.4159415E-3,-5.375891E-3,2.3802274E-3,-4.550451E-3,-2.4255944E-2,-2.5678867E-2,-1.2660216E-2],"split_indices":[0,0,0,1,1,5,0,2,8,7,0,1,8,1,3,6,0,5,3,1,1,2,11,5,1,0,0,0,0,0,0,0,0,0,0,0,0,0,0,0,0,0,0],"split_type":[0,0,0,0,0,0,0,0,0,0,0,0,0,0,0,0,0,0,0,0,0,0,0,0,0,0,0,0,0,0,0,0,0,0,0,0,0,0,0,0,0,0,0],"sum_hessian":[8.08863E5,6.86251E5,1.22612E5,1.7437E4,6.68814E5,1.157E3,1.628E4,4.9453E4,6.19361E5,1.005E3,1.52E2,2.3956E4,2.5497E4,6.03439E5,1.5922E4,9.91E2,1.4E1,2.0484E4,3.472E3,2.4718E4,7.79E2,4.66792E5,1.36647E5,1.3897E4,2.025E3,9.88E2,3E0,1.5256E4,5.228E3,3.428E3,4.4E1,7.4E2,2.3978E4,3.3E2,4.49E2,3.2479E5,1.42002E5,2.8159E4,1.08488E5,1.321E4,6.87E2,1.474E3,5.51E2],"tree_param":{"num_deleted":"0","num_feature":"12","num_nodes":"43","size_leaf_vector":"1"}},{"base_weights":[-3.018149E-6,2.5706263E-2,-1.4389515E-2,-1.399975E-1,3.0026617E-2,-8.536322E-2,-1.4387481E-2,-3.258649E-2,3.6240283E-2,-7.698661E-2,-1.3988282E-2,-1.235788E-1,5.219477E-2,1.6493838E-3,4.574251E-2,-7.534966E-2,-1.3355063E-2,-1.3566758E-1,-9.942461E-2,5.9581585E-2,-1.7681219E-1,4.0861882E-2,-2.2906229E-2,5.6147147E-2,2.7880458E-2,-7.4685286E-3,-2.1878628E-2,-7.6174573E-3,-1.3858022E-2,-9.657854E-3,-3.0380795E-2,-2.4981599E-3,6.928903E-3,-1.4809462E-2,-2.5421238E-2,-1.0056109E-2,6.1815362E-3,-4.836051E-3,2.5306153E-3,2.6863355E-3,6.1331037E-3,2.8868294E-3,-1.6551876E-2],"categories":[],"categories_nodes":[],"categories_segments":[],"categories_sizes":[],"default_left":[0,0,0,0,0,0,0,0,0,0,0,0,0,0,0,0,0,0,0,0,0,0,0,0,0,0,0,0,0,0,0,0,0,0,0,0,0,0,0,0,0,0,0],"id":14,"left_children":[1,3,-1,5,7,9,-1,11,13,15,-1,17,19,21,23,25,-1,27,29,31,33,35,37,39,41,-1,-1,-1,-1,-1,-1,-1,-1,-1,-1,-1,-1,-1,-1,-1,-1,-1,-1],"loss_changes":[2.9922856E3,4.912911E2,0E0,3.6816711E0,2.6020825E2,5.180769E-1,0E0,4.6581223E2,1.9998682E2,8.308554E-2,0E0,8.49054E0,5.2887604E1,1.2625564E2,8.870654E1,7.704973E-2,0E0,3.352356E0,5.6235123E0,2.4859985E1,2.133974E0,1.4962933E2,9.895128E1,4.578546E1,3.3570908E1,0E0,0E0,0E0,0E0,0E0,0E0,0E0,0E0,0E0,0E0,0E0,0E0,0E0,0E0,0E0,0E0,0E0,0E0],"parents":[2147483647,0,0,1,1,3,3,4,4,5,5,7,7,8,8,9,9,11,11,12,12,13,13,14,14,15,15,17,17,18,18,19,19,20,20,21,21,22,22,23,23,24,24],"right_children":[2,4,-1,6,8,10,-1,12,14,16,-1,18,20,22,24,26,-1,28,30,32,34,36,38,40,42,-1,-1,-1,-1,-1,-1,-1,-1,-1,-1,-1,-1,-1,-1,-1,-1,-1,-1],"split_conditions":[2E0,1E0,-1.4389515E-2,2.209164E-2,2.2098271E-2,1E0,-1.4387481E-2,1E0,1E0,1E0,-1.3988282E-2,2.2096202E-2,1E0,2.2126984E-2,2.217535E-2,1E0,-1.3355063E-2,1E0,1E0,2.2093466E-2,2.2096975E-2,1E0,1E0,2.210407E-2,1E0,-7.4685286E-3,-2.1878628E-2,-7.6174573E-3,-1.3858022E-2,-9.657854E-3,-3.0380795E-2,-2.4981599E-3,6.928903E-3,-1.4809462E-2,-2.5421238E-2,-1.0056109E-2,6.1815362E-3,-4.836051E-3,2.5306153E-3,2.6863355E-3,6.1331037E-3,2.8868294E-3,-1.6551876E-2],"split_indices":[0,0,0,1,1,5,0,2,11,2,0,1,8,1,1,6,0,11,3,1,1,10,2,1,6,0,0,0,0,0,0,0,0,0,0,0,0,0,0,0,0,0,0],"split_type":[0,0,0,0,0,0,0,0,0,0,0,0,0,0,0,0,0,0,0,0,0,0,0,0,0,0,0,0,0,0,0,0,0,0,0,0,0,0,0,0,0,0,0],"sum_hessian":[8.08863E5,6.86251E5,1.22612E5,1.7437E4,6.68814E5,1.157E3,1.628E4,6.038E4,6.08434E5,1.005E3,1.52E2,2.9123E4,3.1257E4,1.3112E5,4.77314E5,9.79E2,2.6E1,1.9406E4,9.717E3,3.0281E4,9.76E2,5.0491E4,8.0629E4,3.01619E5,1.75695E5,9.76E2,3E0,9.07E2,1.8499E4,9.585E3,1.32E2,3.118E3,2.7163E4,7.14E2,2.62E2,6.515E3,4.3976E4,5.2769E4,2.786E4,4.5364E4,2.56255E5,1.74803E5,8.92E2],"tree_param":{"num_deleted":"0","num_feature":"12","num_nodes":"43","size_leaf_vector":"1"}},{"base_weights":[-2.9507908E-6,2.3135383E-2,-1.2950576E-2,-1.2600182E-1,2.70238E-2,-7.687586E-2,-1.294882E-1,-2.9329462E-2,3.2616243E-2,-6.933041E-2,-1.2598596E-2,-1.2959561E-2,-1.1927616E-1,-1.11223035E-1,4.697413E-2,1.4843846E-3,4.1168265E-2,-6.816245E-2,-1.4194931E-2,-1.2460591E-2,3.17683E-2,-1.1488482E-1,-4.5015097E-2,5.3623557E-2,-1.5917215E-1,3.6775615E-2,-2.0615658E-2,4.614778E-2,8.163259E-3,-6.662372E-3,-1.2069018E-2,4.351982E-2,-1.0800305E-2,-1.2456906E-2,-8.675006E-3,-3.6573608E-3,-3.9385207E-2,-6.18165E-5,6.6572726E-3,-1.3330588E-2,-2.2888782E-2,5.3699138E-3,-1.071736E-2,-4.3524574E-3,2.2775612E-3,4.670331E-3,-2.178759E-2,-4.5087605E-4,4.2488836E-3],"categories":[],"categories_nodes":[],"categories_segments":[],"categories_sizes":[],"default_left":[0,0,0,0,0,0,0,0,0,0,0,0,0,0,0,0,0,0,0,0,0,0,0,0,0,0,0,0,0,0,0,0,0,0,0,0,0,0,0,0,0,0,0,0,0,0,0,0,0],"id":15,"left_children":[1,3,-1,5,7,9,11,13,15,17,-1,-1,19,21,23,25,27,29,-1,-1,31,33,35,37,39,41,43,45,47,-1,-1,-1,-1,-1,-1,-1,-1,-1,-1,-1,-1,-1,-1,-1,-1,-1,-1,-1,-1],"loss_changes":[2.4237468E3,3.979661E2,0E0,2.9766846E0,2.1077966E2,4.2037153E-1,2.4108887E-3,3.7731244E2,1.6198993E2,7.564926E-2,0E0,0E0,1.5047383E-1,7.0556335E0,4.2855576E1,1.0226697E2,7.844586E1,7.213831E-2,0E0,0E0,4.417183E-1,7.5083923E0,4.4851027E0,2.126966E1,1.7312965E0,1.2301068E2,8.0151E1,6.0841614E1,2.7218279E1,0E0,0E0,0E0,0E0,0E0,0E0,0E0,0E0,0E0,0E0,0E0,0E0,0E0,0E0,0E0,0E0,0E0,0E0,0E0,0E0],"parents":[2147483647,0,0,1,1,3,3,4,4,5,5,6,6,7,7,8,8,9,9,12,12,13,13,14,14,15,15,16,16,17,17,20,20,21,21,22,22,23,23,24,24,25,25,26,26,27,27,28,28],"right_children":[2,4,-1,6,8,10,12,14,16,18,-1,-1,20,22,24,26,28,30,-1,-1,32,34,36,38,40,42,44,46,48,-1,-1,-1,-1,-1,-1,-1,-1,-1,-1,-1,-1,-1,-1,-1,-1,-1,-1,-1,-1],"split_conditions":[2E0,1E0,-1.2950576E-2,2.209164E-2,2.2098271E-2,1E0,1E0,1E0,1E0,1E0,-1.2598596E-2,-1.2959561E-2,2.2381399E-2,1E0,1E0,2.2126984E-2,2.2318352E-2,1E0,-1.4194931E-2,-1.2460591E-2,2.253512E-2,1E0,1E0,2.2094086E-2,2.2096975E-2,1E0,1E0,1E0,1E0,-6.662372E-3,-1.2069018E-2,4.351982E-2,-1.0800305E-2,-1.2456906E-2,-8.675006E-3,-3.6573608E-3,-3.9385207E-2,-6.18165E-5,6.6572726E-3,-1.3330588E-2,-2.2888782E-2,5.3699138E-3,-1.071736E-2,-4.3524574E-3,2.2775612E-3,4.670331E-3,-2.178759E-2,-4.5087605E-4,4.2488836E-3],"split_indices":[0,0,0,1,1,5,6,2,11,7,0,0,1,10,8,1,1,2,0,0,1,5,3,1,1,8,2,7,2,0,0,0,0,0,0,0,0,0,0,0,0,0,0,0,0,0,0,0,0],"split_type":[0,0,0,0,0,0,0,0,0,0,0,0,0,0,0,0,0,0,0,0,0,0,0,0,0,0,0,0,0,0,0,0,0,0,0,0,0,0,0,0,0,0,0,0,0,0,0,0,0],"sum_hessian":[8.08863E5,6.86251E5,1.22612E5,1.7437E4,6.68814E5,1.157E3,1.628E4,6.038E4,6.08434E5,1.005E3,1.52E2,1.6099E4,1.81E2,2.9123E4,3.1257E4,1.3112E5,4.77314E5,9.91E2,1.4E1,1.75E2,6E0,2.7596E4,1.527E3,3.0281E4,9.76E2,5.0491E4,8.0629E4,4.14741E5,6.2573E4,9.65E2,2.6E1,1E0,5E0,2.0527E4,7.069E3,1.492E3,3.5E1,5.836E3,2.4445E4,7.14E2,2.62E2,4.518E4,5.311E3,5.2769E4,2.786E4,4.13871E5,8.7E2,4.5702E4,1.6871E4],"tree_param":{"num_deleted":"0","num_feature":"12","num_nodes":"49","size_leaf_vector":"1"}},{"base_weights":[-2.856282E-6,2.0821627E-2,-1.1655528E-2,-1.1340383E-1,2.4321252E-2,-6.922758E-2,-1.16538934E-1,-4.6596754E-2,2.8018769E-2,-6.24301E-2,-1.1346972E-2,-1.1658359E-2,-9.64968E-3,-1.1045713E-1,2.3532543E-2,3.0432971E-2,-6.280927E-2,-6.1829668E-2,-1.9738052E-2,-1.2503509E-1,-1.0063929E-1,5.7532666E-3,7.281475E-2,2.0559685E-2,5.3237014E-2,-4.4804752E-2,-1.8542726E-1,-6.075293E-3,-1.28700705E-2,-1.17946E-2,-1.4436071E-2,-1.1197904E-2,-6.5978044E-3,-1.1516622E-2,1.3971971E-3,4.7720224E-2,7.153844E-3,-6.772026E-3,2.4825807E-3,6.983845E-3,3.986522E-3,-4.854597E-3,4.2291246E-2,-2.0845106E-2,-8.352912E-3],"categories":[],"categories_nodes":[],"categories_segments":[],"categories_sizes":[],"default_left":[0,0,0,0,0,0,0,0,0,0,0,0,0,0,0,0,0,0,0,0,0,0,0,0,0,0,0,0,0,0,0,0,0,0,0,0,0,0,0,0,0,0,0,0,0],"id":16,"left_children":[1,3,-1,5,7,9,11,13,15,17,-1,-1,-1,19,21,23,25,27,-1,29,31,33,35,37,39,41,43,-1,-1,-1,-1,-1,-1,-1,-1,-1,-1,-1,-1,-1,-1,-1,-1,-1,-1],"loss_changes":[1.9632318E3,3.2236203E2,0E0,2.4070435E0,1.7537833E2,3.4116745E-1,3.3111572E-3,1.4843298E2,1.3939062E2,6.93109E-2,0E0,0E0,0E0,2.4701996E0,1.3840943E1,1.3941565E2,3.632788E1,6.439972E-2,0E0,9.388275E-1,4.068939E0,1.1539645E1,2.1273823E0,1.6274513E2,4.1529907E1,2.513587E1,4.9257812E0,0E0,0E0,0E0,0E0,0E0,0E0,0E0,0E0,0E0,0E0,0E0,0E0,0E0,0E0,0E0,0E0,0E0,0E0],"parents":[2147483647,0,0,1,1,3,3,4,4,5,5,6,6,7,7,8,8,9,9,13,13,14,14,15,15,16,16,17,17,19,19,20,20,21,21,22,22,23,23,24,24,25,25,26,26],"right_children":[2,4,-1,6,8,10,12,14,16,18,-1,-1,-1,20,22,24,26,28,-1,30,32,34,36,38,40,42,44,-1,-1,-1,-1,-1,-1,-1,-1,-1,-1,-1,-1,-1,-1,-1,-1,-1,-1],"split_conditions":[2E0,1E0,-1.1655528E-2,2.209164E-2,2.2095688E-2,1E0,1E0,1E0,1E0,1E0,-1.1346972E-2,-1.1658359E-2,-9.64968E-3,2.209311E-2,1E0,1E0,1E0,1E0,-1.9738052E-2,1E0,1E0,2.2092264E-2,2.2092264E-2,2.2099853E-2,2.2123042E-2,1E0,2.2205098E-2,-6.075293E-3,-1.28700705E-2,-1.17946E-2,-1.4436071E-2,-1.1197904E-2,-6.5978044E-3,-1.1516622E-2,1.3971971E-3,4.7720224E-2,7.153844E-3,-6.772026E-3,2.4825807E-3,6.983845E-3,3.986522E-3,-4.854597E-3,4.2291246E-2,-2.0845106E-2,-8.352912E-3],"split_indices":[0,0,0,1,1,5,10,2,8,6,0,0,0,1,10,2,3,7,0,5,5,1,1,1,1,6,1,0,0,0,0,0,0,0,0,0,0,0,0,0,0,0,0,0,0],"split_type":[0,0,0,0,0,0,0,0,0,0,0,0,0,0,0,0,0,0,0,0,0,0,0,0,0,0,0,0,0,0,0,0,0,0,0,0,0,0,0,0,0,0,0,0,0],"sum_hessian":[8.08863E5,6.86251E5,1.22612E5,1.7437E4,6.68814E5,1.157E3,1.628E4,3.3142E4,6.35672E5,1.005E3,1.52E2,1.6239E4,4.1E1,1.7346E4,1.5796E4,6.19214E5,1.6458E4,1.002E3,3E0,6.976E3,1.037E4,1.1609E4,4.187E3,4.32123E5,1.87091E5,1.4352E4,2.106E3,9.88E2,1.4E1,5.109E3,1.867E3,7.812E3,2.558E3,7.38E2,1.0871E4,1.2E1,4.175E3,1.9919E4,4.12204E5,8.3464E4,1.03627E5,1.4239E4,1.13E2,1.717E3,3.89E2],"tree_param":{"num_deleted":"0","num_feature":"12","num_nodes":"45","size_leaf_vector":"1"}},{"base_weights":[-2.6585867E-6,1.8739376E-2,-1.0489984E-2,-1.0206753E-1,2.1889145E-2,-6.2348023E-2,-1.04886346E-1,-3.7050307E-2,2.550087E-2,-5.6225535E-2,-1.021969E-2,-1.0497921E-2,-9.609544E-2,-1.00289814E-1,2.6833005E-2,3.10941E-2,-9.5464215E-3,-5.5665582E-2,-1.8257698E-2,-1.0109193E-2,4.325856E-2,-1.00498065E-1,5.898493E-2,-1.6910774E-1,2.9950144E-2,3.2300618E-2,-1.5184246E-1,-5.954351E-2,5.674215E-3,-5.4294467E-3,-1.0321788E-2,4.1926745E-2,-8.92875E-3,-1.0252601E-2,-4.592843E-3,3.1842303E-2,-1.8010302E-2,3.4236126E-3,-1.2051709E-2,3.3914435E-3,-3.82764E-3,-1.633775E-2,1.9837422E-2,-8.94451E-3,1.3105697E-3,-5.059027E-4,3.4972373E-3],"categories":[],"categories_nodes":[],"categories_segments":[],"categories_sizes":[],"default_left":[0,0,0,0,0,0,0,0,0,0,0,0,0,0,0,0,0,0,0,0,0,0,0,0,0,0,0,0,0,0,0,0,0,0,0,0,0,0,0,0,0,0,0,0,0,0,0],"id":17,"left_children":[1,3,-1,5,7,9,11,13,15,17,-1,-1,19,21,23,25,27,29,-1,-1,31,33,-1,35,37,39,41,43,45,-1,-1,-1,-1,-1,-1,-1,-1,-1,-1,-1,-1,-1,-1,-1,-1,-1,-1],"loss_changes":[1.5902179E3,2.6113052E2,0E0,1.9458466E0,1.4237366E2,2.767763E-1,3.2043457E-3,1.5601746E2,1.2353653E2,6.101203E-2,0E0,0E0,1.3109624E-1,2.848526E0,1.1739266E1,1.19956604E2,6.600306E1,5.979085E-2,0E0,0E0,3.8630477E-1,2.142395E0,0E0,1.6708698E0,1.2200464E1,6.1495728E1,1.4418022E1,4.3973404E1,2.090953E1,0E0,0E0,0E0,0E0,0E0,0E0,0E0,0E0,0E0,0E0,0E0,0E0,0E0,0E0,0E0,0E0,0E0,0E0],"parents":[2147483647,0,0,1,1,3,3,4,4,5,5,6,6,7,7,8,8,9,9,12,12,13,13,14,14,15,15,16,16,17,17,20,20,21,21,23,23,24,24,25,25,26,26,27,27,28,28],"right_children":[2,4,-1,6,8,10,12,14,16,18,-1,-1,20,22,24,26,28,30,-1,-1,32,34,-1,36,38,40,42,44,46,-1,-1,-1,-1,-1,-1,-1,-1,-1,-1,-1,-1,-1,-1,-1,-1,-1,-1],"split_conditions":[2E0,1E0,-1.0489984E-2,2.209164E-2,2.2096202E-2,1E0,1E0,1E0,2.2307675E-2,1E0,-1.021969E-2,-1.0497921E-2,2.2381399E-2,1E0,2.209164E-2,1E0,1E0,1E0,-1.8257698E-2,-1.0109193E-2,2.253512E-2,1E0,5.898493E-2,1E0,1E0,1E0,1E0,1E0,1E0,-5.4294467E-3,-1.0321788E-2,4.1926745E-2,-8.92875E-3,-1.0252601E-2,-4.592843E-3,3.1842303E-2,-1.8010302E-2,3.4236126E-3,-1.2051709E-2,3.3914435E-3,-3.82764E-3,-1.633775E-2,1.9837422E-2,-8.94451E-3,1.3105697E-3,-5.059027E-4,3.4972373E-3],"split_indices":[0,0,0,1,1,5,6,2,1,6,0,0,1,4,1,3,11,2,0,0,1,10,0,11,8,8,11,2,2,0,0,0,0,0,0,0,0,0,0,0,0,0,0,0,0,0,0],"split_type":[0,0,0,0,0,0,0,0,0,0,0,0,0,0,0,0,0,0,0,0,0,0,0,0,0,0,0,0,0,0,0,0,0,0,0,0,0,0,0,0,0,0,0,0,0,0,0],"sum_hessian":[8.08863E5,6.86251E5,1.22612E5,1.7437E4,6.68814E5,1.157E3,1.628E4,3.8617E4,6.30197E5,1.005E3,1.52E2,1.6099E4,1.81E2,1.9406E4,1.9211E4,5.43465E5,8.6732E4,1.002E3,3E0,1.75E2,6E0,1.9401E4,5E0,3E2,1.8911E4,5.39905E5,3.56E3,2.0241E4,6.6491E4,9.76E2,2.6E1,1E0,5E0,1.8705E4,6.96E2,6E0,2.94E2,1.8388E4,5.23E2,5.27836E5,1.2069E4,3.447E3,1.13E2,1.4339E4,5.902E3,4.8664E4,1.7827E4],"tree_param":{"num_deleted":"0","num_feature":"12","num_nodes":"47","size_leaf_vector":"1"}},{"base_weights":[-2.3861926E-6,1.6865462E-2,-9.440995E-3,-9.1862604E-2,1.9700302E-2,-5.615143E-2,-9.439695E-2,-2.2910183E-2,2.3928927E-2,-5.0636802E-2,-9.204401E-3,-9.44356E-3,-7.720838E-3,-8.506619E-2,3.500314E-2,3.407332E-2,5.3626993E-3,-4.9663614E-2,-1.1162116E-2,-9.237262E-2,-6.247308E-2,4.0413484E-2,-1.3272569E-1,3.6295336E-2,-5.404355E-2,-3.2748267E-2,1.6150977E-2,-4.9131215E-3,-1.688837E-2,-3.2710468E-3,-9.7857E-3,-1.0267075E-2,-3.130732E-3,-3.862162E-4,5.098358E-3,-1.087372E-2,-1.9743687E-2,3.0311195E-3,4.9740896E-3,-3.2874153E-3,-1.7414628E-2,-5.3198826E-3,1.1164735E-3,1.7045938E-3,-1.51458895E-2],"categories":[],"categories_nodes":[],"categories_segments":[],"categories_sizes":[],"default_left":[0,0,0,0,0,0,0,0,0,0,0,0,0,0,0,0,0,0,0,0,0,0,0,0,0,0,0,0,0,0,0,0,0,0,0,0,0,0,0,0,0,0,0,0,0],"id":18,"left_children":[1,3,-1,5,7,9,11,13,15,17,-1,-1,-1,19,21,23,25,27,-1,29,31,33,35,37,39,41,43,-1,-1,-1,-1,-1,-1,-1,-1,-1,-1,-1,-1,-1,-1,-1,-1,-1,-1],"loss_changes":[1.288079E3,2.1152293E2,0E0,1.5729218E0,1.2051019E2,2.2454667E-1,3.5095215E-3,2.1735413E2,1.1459436E2,5.416155E-2,0E0,0E0,0E0,4.8018646E0,2.8371078E1,7.703931E1,8.8390335E1,5.466795E-2,0E0,7.1970673E0,8.916658E0,1.4172108E1,1.4951496E0,3.087732E1,2.4600613E1,4.2594887E1,2.5136055E1,0E0,0E0,0E0,0E0,0E0,0E0,0E0,0E0,0E0,0E0,0E0,0E0,0E0,0E0,0E0,0E0,0E0,0E0],"parents":[2147483647,0,0,1,1,3,3,4,4,5,5,6,6,7,7,8,8,9,9,13,13,14,14,15,15,16,16,17,17,19,19,20,20,21,21,22,22,23,23,24,24,25,25,26,26],"right_children":[2,4,-1,6,8,10,12,14,16,18,-1,-1,-1,20,22,24,26,28,-1,30,32,34,36,38,40,42,44,-1,-1,-1,-1,-1,-1,-1,-1,-1,-1,-1,-1,-1,-1,-1,-1,-1,-1],"split_conditions":[2E0,1E0,-9.440995E-3,2.209164E-2,2.2098271E-2,1E0,1E0,1E0,2.2180462E-2,1E0,-9.204401E-3,-9.44356E-3,-7.720838E-3,1E0,1E0,1E0,1E0,1E0,-1.1162116E-2,1E0,2.2094356E-2,2.2094086E-2,2.2096975E-2,1E0,1E0,1E0,1E0,-4.9131215E-3,-1.688837E-2,-3.2710468E-3,-9.7857E-3,-1.0267075E-2,-3.130732E-3,-3.862162E-4,5.098358E-3,-1.087372E-2,-1.9743687E-2,3.0311195E-3,4.9740896E-3,-3.2874153E-3,-1.7414628E-2,-5.3198826E-3,1.1164735E-3,1.7045938E-3,-1.51458895E-2],"split_indices":[0,0,0,1,1,5,10,2,1,7,0,0,0,5,8,8,11,6,0,11,1,1,1,2,3,2,6,0,0,0,0,0,0,0,0,0,0,0,0,0,0,0,0,0,0],"split_type":[0,0,0,0,0,0,0,0,0,0,0,0,0,0,0,0,0,0,0,0,0,0,0,0,0,0,0,0,0,0,0,0,0,0,0,0,0,0,0,0,0,0,0,0,0],"sum_hessian":[8.08863E5,6.86251E5,1.22612E5,1.7437E4,6.68814E5,1.157E3,1.628E4,6.038E4,6.08434E5,1.005E3,1.52E2,1.6239E4,4.1E1,2.9123E4,3.1257E4,3.93454E5,2.1498E5,9.91E2,1.4E1,2.2004E4,7.119E3,3.0281E4,9.76E2,3.83777E5,9.677E3,4.7429E4,1.67551E5,9.88E2,3E0,1.853E3,2.0151E4,3.108E3,4.011E3,5.836E3,2.4445E4,7.14E2,2.62E2,2.6558E5,1.18197E5,8.228E3,1.449E3,3.2359E4,1.507E4,1.66662E5,8.89E2],"tree_param":{"num_deleted":"0","num_feature":"12","num_nodes":"45","size_leaf_vector":"1"}},{"base_weights":[-2.3308944E-6,1.5178713E-2,-8.496903E-3,-8.267975E-2,1.7730152E-2,-5.0572693E-2,-8.4958315E-2,-1.8992798E-2,2.1741992E-2,-4.5605883E-2,-8.289977E-3,-8.503897E-3,-7.735655E-2,-7.573649E-2,3.4143355E-2,-2.6932058E-3,2.8436257E-2,-4.437627E-2,-8.854723E-3,-8.205159E-2,5.1741183E-2,-7.87177E-2,-2.635291E-2,3.9531577E-2,-1.2928113E-1,2.9755501E-2,-1.7492045E-2,3.7528995E-2,1.6276015E-2,-4.387295E-3,-1.5621744E-2,-8.529543E-3,-6.967137E-3,4.0302586E-2,-7.397725E-3,-8.5207075E-3,-5.956262E-3,-1.8851649E-3,-3.4256443E-2,1.7722858E-4,5.036499E-3,-9.787868E-3,-1.8929046E-2,-7.6488266E-3,4.4970796E-3,-3.5767562E-3,1.6023128E-3,1.2255934E-3,4.2351256E-3,2.1824187E-3,-4.411519E-4],"categories":[],"categories_nodes":[],"categories_segments":[],"categories_sizes":[],"default_left":[0,0,0,0,0,0,0,0,0,0,0,0,0,0,0,0,0,0,0,0,0,0,0,0,0,0,0,0,0,0,0,0,0,0,0,0,0,0,0,0,0,0,0,0,0,0,0,0,0,0,0],"id":19,"left_children":[1,3,-1,5,7,9,11,13,15,17,-1,-1,19,21,23,25,27,29,-1,31,33,35,37,39,41,43,45,47,49,-1,-1,-1,-1,-1,-1,-1,-1,-1,-1,-1,-1,-1,-1,-1,-1,-1,-1,-1,-1,-1,-1],"loss_changes":[1.0433413E3,1.7134479E2,0E0,1.2714386E0,9.853467E1,1.8215084E-1,3.40271E-3,1.9860997E2,9.862741E1,4.9188375E-2,0E0,0E0,1.14559054E-1,4.687561E0,2.9959358E1,6.2264633E1,5.2330444E1,4.8312068E-2,0E0,1.1254549E-3,3.3895543E-1,3.7290344E0,4.2986956E0,1.3471134E1,2.0279732E0,6.565558E1,5.4544342E1,3.300241E1,2.3241371E1,0E0,0E0,0E0,0E0,0E0,0E0,0E0,0E0,0E0,0E0,0E0,0E0,0E0,0E0,0E0,0E0,0E0,0E0,0E0,0E0,0E0,0E0],"parents":[2147483647,0,0,1,1,3,3,4,4,5,5,6,6,7,7,8,8,9,9,12,12,13,13,14,14,15,15,16,16,17,17,19,19,20,20,21,21,22,22,23,23,24,24,25,25,26,26,27,27,28,28],"right_children":[2,4,-1,6,8,10,12,14,16,18,-1,-1,20,22,24,26,28,30,-1,32,34,36,38,40,42,44,46,48,50,-1,-1,-1,-1,-1,-1,-1,-1,-1,-1,-1,-1,-1,-1,-1,-1,-1,-1,-1,-1,-1,-1],"split_conditions":[2E0,1E0,-8.496903E-3,2.209164E-2,2.2098802E-2,1E0,1E0,1E0,1E0,1E0,-8.289977E-3,-8.503897E-3,2.2381399E-2,1E0,1E0,2.2119502E-2,2.2161162E-2,1E0,-8.854723E-3,1E0,2.253512E-2,1E0,1E0,2.2094356E-2,2.2096975E-2,1E0,1E0,2.2104342E-2,2.23905E-2,-4.387295E-3,-1.5621744E-2,-8.529543E-3,-6.967137E-3,4.0302586E-2,-7.397725E-3,-8.5207075E-3,-5.956262E-3,-1.8851649E-3,-3.4256443E-2,1.7722858E-4,5.036499E-3,-9.787868E-3,-1.8929046E-2,-7.6488266E-3,4.4970796E-3,-3.5767562E-3,1.6023128E-3,1.2255934E-3,4.2351256E-3,2.1824187E-3,-4.411519E-4],"split_indices":[0,0,0,1,1,5,6,2,11,2,0,0,1,10,8,1,1,6,0,10,1,5,3,1,1,10,2,1,1,0,0,0,0,0,0,0,0,0,0,0,0,0,0,0,0,0,0,0,0,0,0],"split_type":[0,0,0,0,0,0,0,0,0,0,0,0,0,0,0,0,0,0,0,0,0,0,0,0,0,0,0,0,0,0,0,0,0,0,0,0,0,0,0,0,0,0,0,0,0,0,0,0,0,0,0],"sum_hessian":[8.08863E5,6.86251E5,1.22612E5,1.7437E4,6.68814E5,1.157E3,1.628E4,6.5869E4,6.02945E5,1.005E3,1.52E2,1.6099E4,1.81E2,3.1853E4,3.4016E4,1.29661E5,4.73284E5,9.79E2,2.6E1,1.75E2,6E0,3.0039E4,1.814E3,3.2931E4,1.085E3,4.0612E4,8.9049E4,2.70796E5,2.02488E5,9.76E2,3E0,1.34E2,4.1E1,1E0,5E0,2.2435E4,7.604E3,1.773E3,4.1E1,7.342E3,2.5589E4,7.14E2,3.71E2,5.087E3,3.5525E4,5.7626E4,3.1423E4,4.3391E4,2.27405E5,1.59667E5,4.2821E4],"tree_param":{"num_deleted":"0","num_feature":"12","num_nodes":"51","size_leaf_vector":"1"}},{"base_weights":[-2.2377162E-6,1.3660689E-2,-7.6472196E-3,-7.441339E-2,1.5957022E-2,-4.5547508E-2,-7.646193E-2,-1.709463E-2,1.9567788E-2,-4.107398E-2,-7.466397E-3,-7.65356E-3,-6.952524E-2,-6.816443E-2,3.0728353E-2,2.4988335E-2,-5.518808E-3,-4.0185284E-2,-9.710837E-3,-7.393448E-2,5.1267754E-2,-6.708162E-2,-1.8537945E-1,3.55786E-2,-1.1637946E-1,2.597141E-2,-1.2415169E-1,-4.4170983E-2,6.027432E-3,-3.9030276E-3,-8.002046E-3,-7.682906E-3,-6.2870122E-3,3.8287457E-2,-6.7812474E-3,-1.0182869E-3,-7.1008652E-3,-3.0890508E-2,-1.6330322E-2,-5.8768955E-3,3.9520063E-3,-9.478318E-3,-1.8747678E-2,2.6373025E-3,-2.1057105E-2,-1.3442871E-2,1.7015217E-2,-6.40044E-3,3.101463E-4,7.3306327E-4,-1.2962595E-2],"categories":[],"categories_nodes":[],"categories_segments":[],"categories_sizes":[],"default_left":[0,0,0,0,0,0,0,0,0,0,0,0,0,0,0,0,0,0,0,0,0,0,0,0,0,0,0,0,0,0,0,0,0,0,0,0,0,0,0,0,0,0,0,0,0,0,0,0,0,0,0],"id":20,"left_children":[1,3,-1,5,7,9,11,13,15,17,-1,-1,19,21,23,25,27,29,-1,31,33,35,37,39,41,43,45,47,49,-1,-1,-1,-1,-1,-1,-1,-1,-1,-1,-1,-1,-1,-1,-1,-1,-1,-1,-1,-1,-1,-1],"loss_changes":[8.451049E2,1.387939E2,0E0,1.0276794E0,7.98179E1,1.4776635E-1,2.998352E-3,1.6087708E2,8.199057E1,4.6194196E-2,0E0,0E0,1.0072458E-1,4.0305023E0,2.4275585E1,7.26976E1,4.7812363E1,4.2518616E-2,0E0,8.0639124E-4,3.0237836E-1,7.0520325E0,7.4310493E-1,1.2248661E1,1.6497164E0,4.679886E1,9.843632E0,2.3103905E1,1.4584175E1,0E0,0E0,0E0,0E0,0E0,0E0,0E0,0E0,0E0,0E0,0E0,0E0,0E0,0E0,0E0,0E0,0E0,0E0,0E0,0E0,0E0,0E0],"parents":[2147483647,0,0,1,1,3,3,4,4,5,5,6,6,7,7,8,8,9,9,12,12,13,13,14,14,15,15,16,16,17,17,19,19,20,20,21,21,22,22,23,23,24,24,25,25,26,26,27,27,28,28],"right_children":[2,4,-1,6,8,10,12,14,16,18,-1,-1,20,22,24,26,28,30,-1,32,34,36,38,40,42,44,46,48,50,-1,-1,-1,-1,-1,-1,-1,-1,-1,-1,-1,-1,-1,-1,-1,-1,-1,-1,-1,-1,-1,-1],"split_conditions":[2E0,1E0,-7.6472196E-3,2.209164E-2,2.2098802E-2,1E0,1E0,1E0,2.2272717E-2,1E0,-7.466397E-3,-7.65356E-3,2.2381399E-2,1E0,1E0,1E0,1E0,1E0,-9.710837E-3,1E0,2.253512E-2,1E0,1E0,2.2092711E-2,2.2097481E-2,1E0,1E0,1E0,1E0,-3.9030276E-3,-8.002046E-3,-7.682906E-3,-6.2870122E-3,3.8287457E-2,-6.7812474E-3,-1.0182869E-3,-7.1008652E-3,-3.0890508E-2,-1.6330322E-2,-5.8768955E-3,3.9520063E-3,-9.478318E-3,-1.8747678E-2,2.6373025E-3,-2.1057105E-2,-1.3442871E-2,1.7015217E-2,-6.40044E-3,3.101463E-4,7.3306327E-4,-1.2962595E-2],"split_indices":[0,0,0,1,1,5,6,2,1,7,0,0,1,3,8,3,11,2,0,10,1,11,8,1,1,7,11,2,6,0,0,0,0,0,0,0,0,0,0,0,0,0,0,0,0,0,0,0,0,0,0],"split_type":[0,0,0,0,0,0,0,0,0,0,0,0,0,0,0,0,0,0,0,0,0,0,0,0,0,0,0,0,0,0,0,0,0,0,0,0,0,0,0,0,0,0,0,0,0,0,0,0,0,0,0],"sum_hessian":[8.08863E5,6.86251E5,1.22612E5,1.7437E4,6.68814E5,1.157E3,1.628E4,6.5869E4,6.02945E5,1.005E3,1.52E2,1.6099E4,1.81E2,3.1853E4,3.4016E4,4.95813E5,1.07132E5,9.91E2,1.4E1,1.75E2,6E0,3.1563E4,2.9E2,3.2931E4,1.085E3,4.92567E5,3.246E3,2.4641E4,8.2491E4,9.65E2,2.6E1,1.34E2,4.1E1,1E0,5E0,2.038E3,2.9525E4,4.2E1,2.48E2,1.32E3,3.1611E4,8.34E2,2.51E2,4.91733E5,8.34E2,3.137E3,1.09E2,1.7358E4,7.283E3,8.1707E4,7.84E2],"tree_param":{"num_deleted":"0","num_feature":"12","num_nodes":"51","size_leaf_vector":"1"}},{"base_weights":[-2.2099387E-6,1.22944005E-2,-6.8825046E-3,-6.697316E-2,1.4361124E-2,-4.1017868E-2,-6.8815134E-2,7.2888974E-3,2.950404E-2,-3.698807E-2,-6.724637E-3,-6.8882518E-3,-6.2476367E-2,-5.154644E-2,1.4060242E-2,3.3378158E-2,-4.5779567E-2,-3.6534097E-2,-1.4157385E-2,-6.662041E-2,5.0641876E-2,-5.590649E-2,1.7540202E-3,-1.902106E-2,2.1352867E-2,3.2510333E-2,1.2454848E-1,-9.989169E-2,-2.0766785E-2,-3.5715902E-3,-8.804492E-3,-6.9203065E-3,-5.6732795E-3,3.6373086E-2,-6.2161433E-3,-6.315329E-3,-3.4277139E-3,6.728407E-4,-2.2941252E-2,2.5343425E-3,-3.1510105E-3,2.5449162E-3,-1.8906407E-3,4.2249025E-3,2.3044085E-3,1.1022971E-2,1.3643212E-2,-1.1459279E-2,-6.901531E-3,-1.1282514E-3,-4.670841E-3],"categories":[],"categories_nodes":[],"categories_segments":[],"categories_sizes":[],"default_left":[0,0,0,0,0,0,0,0,0,0,0,0,0,0,0,0,0,0,0,0,0,0,0,0,0,0,0,0,0,0,0,0,0,0,0,0,0,0,0,0,0,0,0,0,0,0,0,0,0,0,0],"id":21,"left_children":[1,3,-1,5,7,9,11,13,15,17,-1,-1,19,21,23,25,27,29,-1,31,33,35,37,39,41,43,45,47,49,-1,-1,-1,-1,-1,-1,-1,-1,-1,-1,-1,-1,-1,-1,-1,-1,-1,-1,-1,-1,-1,-1],"loss_changes":[6.845324E2,1.12425545E2,0E0,8.308716E-1,7.162596E1,1.19908094E-1,2.6550293E-3,1.8162791E2,6.2100677E1,4.2591453E-2,0E0,0E0,8.868933E-2,1.0935104E1,9.863406E1,1.6017624E1,1.4102692E1,3.9127827E-2,0E0,5.683303E-4,2.698323E-1,6.815567E0,4.0940795E0,4.09183E1,5.5246155E1,1.8491196E1,3.0979156E-1,1.4872932E0,1.7532277E0,0E0,0E0,0E0,0E0,0E0,0E0,0E0,0E0,0E0,0E0,0E0,0E0,0E0,0E0,0E0,0E0,0E0,0E0,0E0,0E0,0E0,0E0],"parents":[2147483647,0,0,1,1,3,3,4,4,5,5,6,6,7,7,8,8,9,9,12,12,13,13,14,14,15,15,16,16,17,17,19,19,20,20,21,21,22,22,23,23,24,24,25,25,26,26,27,27,28,28],"right_children":[2,4,-1,6,8,10,12,14,16,18,-1,-1,20,22,24,26,28,30,-1,32,34,36,38,40,42,44,46,48,50,-1,-1,-1,-1,-1,-1,-1,-1,-1,-1,-1,-1,-1,-1,-1,-1,-1,-1,-1,-1,-1,-1],"split_conditions":[2E0,1E0,-6.8825046E-3,2.209164E-2,1E0,1E0,1E0,2.2101425E-2,1E0,1E0,-6.724637E-3,-6.8882518E-3,2.2381399E-2,1E0,1E0,2.3370806E-2,2.2115527E-2,1E0,-1.4157385E-2,1E0,2.253512E-2,2.2099335E-2,1E0,2.2119502E-2,2.23905E-2,2.2123042E-2,2.4040928E-2,2.2106025E-2,2.2243433E-2,-3.5715902E-3,-8.804492E-3,-6.9203065E-3,-5.6732795E-3,3.6373086E-2,-6.2161433E-3,-6.315329E-3,-3.4277139E-3,6.728407E-4,-2.2941252E-2,2.5343425E-3,-3.1510105E-3,2.5449162E-3,-1.8906407E-3,4.2249025E-3,2.3044085E-3,1.1022971E-2,1.3643212E-2,-1.1459279E-2,-6.901531E-3,-1.1282514E-3,-4.670841E-3],"split_indices":[0,0,0,1,2,5,6,1,8,6,0,0,1,10,11,1,1,7,0,10,1,1,3,1,1,1,1,1,1,0,0,0,0,0,0,0,0,0,0,0,0,0,0,0,0,0,0,0,0,0,0],"split_type":[0,0,0,0,0,0,0,0,0,0,0,0,0,0,0,0,0,0,0,0,0,0,0,0,0,0,0,0,0,0,0,0,0,0,0,0,0,0,0,0,0,0,0,0,0,0,0,0,0,0,0],"sum_hessian":[8.08863E5,6.86251E5,1.22612E5,1.7437E4,6.68814E5,1.157E3,1.628E4,4.55897E5,2.12917E5,1.005E3,1.52E2,1.6099E4,1.81E2,4.7053E4,4.08844E5,2.02497E5,1.042E4,1.002E3,3E0,1.75E2,6E0,4.3495E4,3.558E3,7.3848E4,3.34996E5,2.00589E5,1.908E3,3.293E3,7.127E3,9.88E2,1.4E1,1.34E2,4.1E1,1E0,5E0,3.2578E4,1.0917E4,3.484E3,7.4E1,1.6222E4,5.7626E4,3.04059E5,3.0937E4,9.887E4,1.01719E5,8.7E2,1.038E3,2.229E3,1.064E3,5.22E3,1.907E3],"tree_param":{"num_deleted":"0","num_feature":"12","num_nodes":"51","size_leaf_vector":"1"}},{"base_weights":[-2.0674493E-6,1.1064879E-2,-6.1942595E-3,-6.0277134E-2,1.2924961E-2,-3.69448E-2,-6.1932966E-2,-5.7336476E-2,1.4168443E-2,-3.3315636E-2,-6.056568E-3,-6.1994693E-3,-5.6132227E-2,-6.373214E-2,8.168127E-2,1.4921709E-2,-9.713123E-2,-3.2893028E-2,-1.3095582E-2,-6.002992E-2,4.9885817E-2,-8.123302E-2,-5.34359E-2,-4.2681213E-2,1.2455309E-1,1.7833639E-2,-1.3438284E-2,-1.0417705E-1,1.4370087E-1,-3.1864964E-3,-6.8875486E-3,-6.233402E-3,-5.1194592E-3,3.455443E-2,-5.698131E-3,-8.146103E-3,4.2860627E-2,-6.271089E-3,-3.0851641E-3,4.0575135E-3,-8.919443E-3,4.2733833E-2,1.1354833E-2,1.8146532E-3,-1.8147236E-2,-2.8012788E-3,2.3859374E-3,-1.8193228E-2,-8.413283E-3,-1.3125965E-2,1.4695063E-2],"categories":[],"categories_nodes":[],"categories_segments":[],"categories_sizes":[],"default_left":[0,0,0,0,0,0,0,0,0,0,0,0,0,0,0,0,0,0,0,0,0,0,0,0,0,0,0,0,0,0,0,0,0,0,0,0,0,0,0,0,0,0,0,0,0,0,0,0,0,0,0],"id":22,"left_children":[1,3,-1,5,7,9,11,13,15,17,-1,-1,19,21,23,25,27,29,-1,31,33,35,37,39,41,43,45,47,49,-1,-1,-1,-1,-1,-1,-1,-1,-1,-1,-1,-1,-1,-1,-1,-1,-1,-1,-1,-1,-1,-1],"loss_changes":[5.544708E2,9.106782E1,0E0,6.7141724E-1,5.843441E1,9.72507E-2,2.3498535E-3,1.0346451E1,5.509868E1,3.720367E-2,0E0,0E0,7.820171E-2,1.9994011E0,2.7351189E0,5.3907333E1,7.5116997E0,3.4908533E-2,0E0,3.9172173E-4,2.4086277E-1,5.1348877E-1,1.4651852E0,5.147918E-1,1.2209997E0,3.692038E1,3.3042538E1,6.675518E0,1.318767E-1,0E0,0E0,0E0,0E0,0E0,0E0,0E0,0E0,0E0,0E0,0E0,0E0,0E0,0E0,0E0,0E0,0E0,0E0,0E0,0E0,0E0,0E0],"parents":[2147483647,0,0,1,1,3,3,4,4,5,5,6,6,7,7,8,8,9,9,12,12,13,13,14,14,15,15,16,16,17,17,19,19,20,20,21,21,22,22,23,23,24,24,25,25,26,26,27,27,28,28],"right_children":[2,4,-1,6,8,10,12,14,16,18,-1,-1,20,22,24,26,28,30,-1,32,34,36,38,40,42,44,46,48,50,-1,-1,-1,-1,-1,-1,-1,-1,-1,-1,-1,-1,-1,-1,-1,-1,-1,-1,-1,-1,-1,-1],"split_conditions":[2E0,1E0,-6.1942595E-3,2.209164E-2,2.2093466E-2,1E0,1E0,1E0,1E0,1E0,-6.056568E-3,-6.1994693E-3,2.2381399E-2,2.2092264E-2,1E0,2.2372881E-2,1E0,1E0,-1.3095582E-2,1E0,2.253512E-2,1E0,1E0,2.2092711E-2,2.2092264E-2,1E0,1E0,2.2110611E-2,2.2095157E-2,-3.1864964E-3,-6.8875486E-3,-6.233402E-3,-5.1194592E-3,3.455443E-2,-5.698131E-3,-8.146103E-3,4.2860627E-2,-6.271089E-3,-3.0851641E-3,4.0575135E-3,-8.919443E-3,4.2733833E-2,1.1354833E-2,1.8146532E-3,-1.8147236E-2,-2.8012788E-3,2.3859374E-3,-1.8193228E-2,-8.413283E-3,-1.3125965E-2,1.4695063E-2],"split_indices":[0,0,0,1,1,5,6,10,3,6,0,0,1,1,2,1,11,2,0,10,1,4,2,1,1,7,2,1,1,0,0,0,0,0,0,0,0,0,0,0,0,0,0,0,0,0,0,0,0,0,0],"split_type":[0,0,0,0,0,0,0,0,0,0,0,0,0,0,0,0,0,0,0,0,0,0,0,0,0,0,0,0,0,0,0,0,0,0,0,0,0,0,0,0,0,0,0,0,0,0,0,0,0,0,0],"sum_hessian":[8.08863E5,6.86251E5,1.22612E5,1.7437E4,6.68814E5,1.157E3,1.628E4,1.163E4,6.57184E5,1.005E3,1.52E2,1.6099E4,1.81E2,1.1119E4,5.11E2,6.52767E5,4.417E3,1.002E3,3E0,1.75E2,6E0,4.116E3,7.003E3,1.31E2,3.8E2,5.91984E5,6.0783E4,4.292E3,1.25E2,9.76E2,2.6E1,1.34E2,4.1E1,1E0,5E0,4.115E3,1E0,4.963E3,2.04E3,4.7E1,8.4E1,1.2E1,3.68E2,5.91057E5,9.27E2,4.3705E4,1.7078E4,8.78E2,3.414E3,1E0,1.24E2],"tree_param":{"num_deleted":"0","num_feature":"12","num_nodes":"51","size_leaf_vector":"1"}},{"base_weights":[-1.8557561E-6,9.958405E-3,-5.5748387E-3,-5.425045E-2,1.1632507E-2,-3.3275552E-2,-5.5738974E-2,5.5034817E-3,2.4755862E-2,-3.0007096E-2,-5.4548695E-3,-5.579561E-3,-5.0422832E-2,-4.643918E-2,1.1481553E-2,2.8244236E-2,-4.3031648E-2,-2.9268486E-2,-7.6853335E-3,-5.409143E-2,4.901957E-2,-5.0270498E-2,3.9796197E-4,-1.7723242E-2,1.791962E-2,2.7896956E-2,2.524841E-1,-9.097209E-2,-2.0196123E-2,-2.8867344E-3,-1.2113413E-2,-5.6146793E-3,-4.6197027E-3,3.282671E-2,-5.223287E-3,-5.6221643E-3,-3.2507845E-3,4.4701106E-4,-1.8882653E-2,-1.0975994E-3,-8.90497E-3,2.0670542E-3,-2.378105E-3,3.7118942E-3,2.0765155E-3,-2.0478342E-2,2.636137E-2,-1.040677E-2,-6.1674314E-3,-1.1357892E-3,-4.4055246E-3],"categories":[],"categories_nodes":[],"categories_segments":[],"categories_sizes":[],"default_left":[0,0,0,0,0,0,0,0,0,0,0,0,0,0,0,0,0,0,0,0,0,0,0,0,0,0,0,0,0,0,0,0,0,0,0,0,0,0,0,0,0,0,0,0,0,0,0,0,0,0,0],"id":23,"left_children":[1,3,-1,5,7,9,11,13,15,17,-1,-1,19,21,23,25,27,29,-1,31,33,35,37,39,41,43,45,47,49,-1,-1,-1,-1,-1,-1,-1,-1,-1,-1,-1,-1,-1,-1,-1,-1,-1,-1,-1,-1,-1,-1],"loss_changes":[4.4912228E2,7.376731E1,0E0,5.425911E-1,5.3794907E1,7.887936E-2,2.0866394E-3,1.4156459E2,5.0349564E1,3.2559276E-2,0E0,0E0,6.904784E-2,8.443756E0,7.687236E1,1.5762329E1,1.14065E1,3.3059716E-2,0E0,2.619028E-4,2.1506779E-1,4.5960464E0,2.7432323E0,3.553939E1,3.842974E1,1.3296875E1,1.646904E0,1.2834892E0,1.4882586E0,0E0,0E0,0E0,0E0,0E0,0E0,0E0,0E0,0E0,0E0,0E0,0E0,0E0,0E0,0E0,0E0,0E0,0E0,0E0,0E0,0E0,0E0],"parents":[2147483647,0,0,1,1,3,3,4,4,5,5,6,6,7,7,8,8,9,9,12,12,13,13,14,14,15,15,16,16,17,17,19,19,20,20,21,21,22,22,23,23,24,24,25,25,26,26,27,27,28,28],"right_children":[2,4,-1,6,8,10,12,14,16,18,-1,-1,20,22,24,26,28,30,-1,32,34,36,38,40,42,44,46,48,50,-1,-1,-1,-1,-1,-1,-1,-1,-1,-1,-1,-1,-1,-1,-1,-1,-1,-1,-1,-1,-1,-1],"split_conditions":[2E0,1E0,-5.5748387E-3,2.209164E-2,1E0,1E0,1E0,2.2101425E-2,1E0,1E0,-5.4548695E-3,-5.579561E-3,2.2381399E-2,1E0,1E0,1E0,2.2116281E-2,1E0,-7.6853335E-3,1E0,2.253512E-2,2.2099335E-2,1E0,1E0,2.2477323E-2,2.2117063E-2,2.2097228E-2,2.2106899E-2,2.2243433E-2,-2.8867344E-3,-1.2113413E-2,-5.6146793E-3,-4.6197027E-3,3.282671E-2,-5.223287E-3,-5.6221643E-3,-3.2507845E-3,4.4701106E-4,-1.8882653E-2,-1.0975994E-3,-8.90497E-3,2.0670542E-3,-2.378105E-3,3.7118942E-3,2.0765155E-3,-2.0478342E-2,2.636137E-2,-1.040677E-2,-6.1674314E-3,-1.1357892E-3,-4.4055246E-3],"split_indices":[0,0,0,1,2,5,6,1,8,7,0,0,1,10,11,9,1,6,0,10,1,1,3,5,1,1,1,1,1,0,0,0,0,0,0,0,0,0,0,0,0,0,0,0,0,0,0,0,0,0,0],"split_type":[0,0,0,0,0,0,0,0,0,0,0,0,0,0,0,0,0,0,0,0,0,0,0,0,0,0,0,0,0,0,0,0,0,0,0,0,0,0,0,0,0,0,0,0,0,0,0,0,0,0,0],"sum_hessian":[8.08863E5,6.86251E5,1.22612E5,1.7437E4,6.68814E5,1.157E3,1.628E4,4.55897E5,2.12917E5,1.005E3,1.52E2,1.6099E4,1.81E2,4.7053E4,4.08844E5,2.02497E5,1.042E4,9.91E2,1.4E1,1.75E2,6E0,4.3495E4,3.558E3,7.3848E4,3.34996E5,2.02185E5,3.12E2,3.361E3,7.059E3,9.88E2,3E0,1.34E2,4.1E1,1E0,5E0,3.2578E4,1.0917E4,3.484E3,7.4E1,6.7467E4,6.381E3,3.14265E5,2.0731E4,8.817E4,1.14015E5,7E0,3.05E2,2.321E3,1.04E3,5.152E3,1.907E3],"tree_param":{"num_deleted":"0","num_feature":"12","num_nodes":"51","size_leaf_vector":"1"}},{"base_weights":[-1.7431327E-6,8.962487E-3,-5.0173593E-3,-4.8826344E-2,1.0469201E-2,-2.9972298E-2,-5.0164353E-2,-2.2026021E-2,1.26054855E-2,-2.7028939E-2,-4.912948E-3,-5.0216396E-3,-4.5285113E-2,-5.329685E-2,8.812324E-3,2.009196E-2,1.9272708E-3,-2.610776E-2,-5.946321E-3,-4.874044E-2,4.806095E-2,-5.9769034E-2,-3.4402337E-2,-1.454991E-1,1.10806255E-2,2.1771869E-2,-4.6125125E-2,-2.1311346E-2,8.372225E-3,-2.572918E-3,-1.1204908E-2,-5.0573703E-3,-4.1687316E-3,3.1185372E-2,-4.7880127E-3,-4.5906315E-3,-8.47915E-3,-5.7957987E-3,2.0582767E-3,3.127637E-2,-1.5587992E-2,8.778776E-5,3.6972568E-3,2.467336E-3,-4.2816103E-4,-3.1460242E-3,-1.2921745E-2,-1.5598194E-3,-9.09266E-3,8.9727336E-4,-1.2629463E-2],"categories":[],"categories_nodes":[],"categories_segments":[],"categories_sizes":[],"default_left":[0,0,0,0,0,0,0,0,0,0,0,0,0,0,0,0,0,0,0,0,0,0,0,0,0,0,0,0,0,0,0,0,0,0,0,0,0,0,0,0,0,0,0,0,0,0,0,0,0,0,0],"id":24,"left_children":[1,3,-1,5,7,9,11,13,15,17,-1,-1,19,21,23,25,27,29,-1,31,33,35,37,39,41,43,45,47,49,-1,-1,-1,-1,-1,-1,-1,-1,-1,-1,-1,-1,-1,-1,-1,-1,-1,-1,-1,-1,-1,-1],"loss_changes":[3.6378867E2,5.9753304E1,0E0,4.3840408E-1,4.642878E1,6.3967586E-2,1.8615723E-3,3.9786274E1,5.016839E1,2.850449E-2,0E0,0E0,6.104496E-2,2.503025E0,7.272676E0,4.103853E1,3.873806E1,2.900207E-2,0E0,1.6745925E-4,1.9209152E-1,5.2884483E0,6.773844E0,1.4806538E0,5.4082985E0,2.7197784E1,1.1118765E1,2.2333883E1,1.6376133E1,0E0,0E0,0E0,0E0,0E0,0E0,0E0,0E0,0E0,0E0,0E0,0E0,0E0,0E0,0E0,0E0,0E0,0E0,0E0,0E0,0E0,0E0],"parents":[2147483647,0,0,1,1,3,3,4,4,5,5,6,6,7,7,8,8,9,9,12,12,13,13,14,14,15,15,16,16,17,17,19,19,20,20,21,21,22,22,23,23,24,24,25,25,26,26,27,27,28,28],"right_children":[2,4,-1,6,8,10,12,14,16,18,-1,-1,20,22,24,26,28,30,-1,32,34,36,38,40,42,44,46,48,50,-1,-1,-1,-1,-1,-1,-1,-1,-1,-1,-1,-1,-1,-1,-1,-1,-1,-1,-1,-1,-1,-1],"split_conditions":[2E0,1E0,-5.0173593E-3,2.209164E-2,2.2096446E-2,1E0,1E0,1E0,2.2161162E-2,1E0,-4.912948E-3,-5.0216396E-3,2.2381399E-2,1E0,2.209164E-2,1E0,1E0,1E0,-5.946321E-3,1E0,2.253512E-2,2.2094626E-2,2.2094898E-2,1E0,1E0,1E0,1E0,1E0,1E0,-2.572918E-3,-1.1204908E-2,-5.0573703E-3,-4.1687316E-3,3.1185372E-2,-4.7880127E-3,-4.5906315E-3,-8.47915E-3,-5.7957987E-3,2.0582767E-3,3.127637E-2,-1.5587992E-2,8.778776E-5,3.6972568E-3,2.467336E-3,-4.2816103E-4,-3.1460242E-3,-1.2921745E-2,-1.5598194E-3,-9.09266E-3,8.9727336E-4,-1.2629463E-2],"split_indices":[0,0,0,1,1,5,6,2,1,2,0,0,1,5,1,8,11,6,0,10,1,1,1,11,10,5,3,5,6,0,0,0,0,0,0,0,0,0,0,0,0,0,0,0,0,0,0,0,0,0,0],"split_type":[0,0,0,0,0,0,0,0,0,0,0,0,0,0,0,0,0,0,0,0,0,0,0,0,0,0,0,0,0,0,0,0,0,0,0,0,0,0,0,0,0,0,0,0,0,0,0,0,0,0,0],"sum_hessian":[8.08863E5,6.86251E5,1.22612E5,1.7437E4,6.68814E5,1.157E3,1.628E4,4.1256E4,6.27558E5,1.005E3,1.52E2,1.6099E4,1.81E2,2.0484E4,2.0772E4,3.68913E5,2.58645E5,9.79E2,2.6E1,1.75E2,6E0,1.5256E4,5.228E3,3E2,2.0472E4,3.59786E5,9.127E3,5.6157E4,2.02488E5,9.76E2,3E0,1.34E2,4.1E1,1E0,5E0,9.819E3,5.437E3,3.66E3,1.568E3,6E0,2.94E2,1.4686E4,5.786E3,3.23733E5,3.6053E4,7.759E3,1.368E3,5.1899E4,4.258E3,2.0159E5,8.98E2],"tree_param":{"num_deleted":"0","num_feature":"12","num_nodes":"51","size_leaf_vector":"1"}},{"base_weights":[-1.6377284E-6,8.066164E-3,-4.5156274E-3,-4.3944422E-2,9.422224E-3,-2.6996331E-2,-4.5147173E-2,4.091032E-3,2.0837275E-2,-2.4345636E-2,-4.424864E-3,-4.519507E-3,-4.0662255E-2,-3.977699E-2,9.338856E-3,2.3783077E-2,-3.640672E-2,-2.36719E-2,-6.7278966E-3,-4.391882E-2,4.702591E-2,-4.3044355E-2,-5.910587E-4,1.2674555E-2,-3.3676427E-2,2.2987137E-2,1.0740478E-1,-7.933452E-2,-1.595917E-2,-2.3324515E-3,-1.0364539E-2,-4.5553795E-3,-3.761784E-3,2.9626105E-2,-4.3890118E-3,-4.802866E-3,-2.9928505E-3,3.0213868E-4,-1.7526403E-2,-9.0980605E-4,1.7322267E-3,-2.0452423E-3,-8.066933E-3,2.2669996E-3,2.258419E-2,9.450619E-3,1.1811438E-2,-9.219947E-3,-5.3943386E-3,-1.1662486E-3,-5.9190593E-3],"categories":[],"categories_nodes":[],"categories_segments":[],"categories_sizes":[],"default_left":[0,0,0,0,0,0,0,0,0,0,0,0,0,0,0,0,0,0,0,0,0,0,0,0,0,0,0,0,0,0,0,0,0,0,0,0,0,0,0,0,0,0,0,0,0,0,0,0,0,0,0],"id":25,"left_children":[1,3,-1,5,7,9,11,13,15,17,-1,-1,19,21,23,25,27,29,-1,31,33,35,37,39,41,43,45,47,49,-1,-1,-1,-1,-1,-1,-1,-1,-1,-1,-1,-1,-1,-1,-1,-1,-1,-1,-1,-1,-1,-1],"loss_changes":[2.9466846E2,4.8401375E1,0E0,3.5424423E-1,4.070121E1,5.187881E-2,1.6593933E-3,1.0495339E2,3.5905106E1,2.750665E-2,0E0,0E0,5.403757E-2,6.2366867E0,5.8426216E1,1.3475349E1,9.145957E0,2.5142074E-2,0E0,9.953976E-5,1.716192E-1,2.9378815E0,2.3667667E0,3.823941E1,1.8208858E1,1.2899597E1,2.525444E-1,1.0932446E0,1.3107173E0,0E0,0E0,0E0,0E0,0E0,0E0,0E0,0E0,0E0,0E0,0E0,0E0,0E0,0E0,0E0,0E0,0E0,0E0,0E0,0E0,0E0,0E0],"parents":[2147483647,0,0,1,1,3,3,4,4,5,5,6,6,7,7,8,8,9,9,12,12,13,13,14,14,15,15,16,16,17,17,19,19,20,20,21,21,22,22,23,23,24,24,25,25,26,26,27,27,28,28],"right_children":[2,4,-1,6,8,10,12,14,16,18,-1,-1,20,22,24,26,28,30,-1,32,34,36,38,40,42,44,46,48,50,-1,-1,-1,-1,-1,-1,-1,-1,-1,-1,-1,-1,-1,-1,-1,-1,-1,-1,-1,-1,-1,-1],"split_conditions":[2E0,1E0,-4.5156274E-3,2.209164E-2,1E0,1E0,1E0,2.2101684E-2,1E0,1E0,-4.424864E-3,-4.519507E-3,2.2381399E-2,1E0,2.2461886E-2,2.3370806E-2,2.2116281E-2,1E0,-6.7278966E-3,1E0,2.253512E-2,2.2099335E-2,1E0,1E0,1E0,1E0,2.4040928E-2,2.2106025E-2,2.2381399E-2,-2.3324515E-3,-1.0364539E-2,-4.5553795E-3,-3.761784E-3,2.9626105E-2,-4.3890118E-3,-4.802866E-3,-2.9928505E-3,3.0213868E-4,-1.7526403E-2,-9.0980605E-4,1.7322267E-3,-2.0452423E-3,-8.066933E-3,2.2669996E-3,2.258419E-2,9.450619E-3,1.1811438E-2,-9.219947E-3,-5.3943386E-3,-1.1662486E-3,-5.9190593E-3],"split_indices":[0,0,0,1,2,5,6,1,8,7,0,0,1,10,1,1,1,6,0,10,1,1,3,11,10,9,1,1,1,0,0,0,0,0,0,0,0,0,0,0,0,0,0,0,0,0,0,0,0,0,0],"split_type":[0,0,0,0,0,0,0,0,0,0,0,0,0,0,0,0,0,0,0,0,0,0,0,0,0,0,0,0,0,0,0,0,0,0,0,0,0,0,0,0,0,0,0,0,0,0,0,0,0,0,0],"sum_hessian":[8.08863E5,6.86251E5,1.22612E5,1.7437E4,6.68814E5,1.157E3,1.628E4,4.55897E5,2.12917E5,1.005E3,1.52E2,1.6099E4,1.81E2,4.871E4,4.07187E5,2.02497E5,1.042E4,9.91E2,1.4E1,1.75E2,6E0,4.4961E4,3.749E3,3.77884E5,2.9303E4,2.00589E5,1.908E3,3.361E3,7.059E3,9.88E2,3E0,1.34E2,4.1E1,1E0,5E0,3.2578E4,1.2383E4,3.674E3,7.5E1,6.6475E4,3.11409E5,2.2869E4,6.434E3,2.00277E5,3.12E2,8.7E2,1.038E3,2.229E3,1.132E3,6.422E3,6.37E2],"tree_param":{"num_deleted":"0","num_feature":"12","num_nodes":"51","size_leaf_vector":"1"}},{"base_weights":[-1.5087784E-6,7.259514E-3,-4.0640687E-3,-3.9550636E-2,8.479984E-3,-2.4317296E-2,-4.0631693E-2,9.065865E-3,-7.952908E-2,-2.1930384E-2,-3.98527E-3,-4.0675844E-3,-3.6503065E-2,-1.5936142E-2,1.1068277E-2,-8.548015E-2,1.24100074E-1,-2.1093579E-2,-5.149106E-3,-3.9574195E-2,4.592862E-2,-4.103502E-2,7.461427E-3,1.8135458E-2,1.2027369E-3,-1.0304567E-1,-1.096329E-2,-1.15244575E-2,1.269368E-1,-2.0452084E-3,-6.0999594E-3,-4.1032163E-3,-3.3945625E-3,2.8144801E-2,-4.023261E-3,-4.66007E-3,-2.462872E-3,-1.3300389E-2,9.1390446E-4,2.0798272E-3,-6.07512E-4,-1.6711036E-3,6.0064247E-4,-1.4733027E-2,-8.792019E-3,-1.9821408E-3,2.1541525E-2,1.1864885E-2,2.205759E-2],"categories":[],"categories_nodes":[],"categories_segments":[],"categories_sizes":[],"default_left":[0,0,0,0,0,0,0,0,0,0,0,0,0,0,0,0,0,0,0,0,0,0,0,0,0,0,0,0,0,0,0,0,0,0,0,0,0,0,0,0,0,0,0,0,0,0,0,0,0],"id":26,"left_children":[1,3,-1,5,7,9,11,13,15,17,-1,-1,19,21,23,25,27,29,-1,31,33,35,37,39,41,43,45,-1,47,-1,-1,-1,-1,-1,-1,-1,-1,-1,-1,-1,-1,-1,-1,-1,-1,-1,-1,-1,-1],"loss_changes":[2.3868149E2,3.9206146E1,0E0,2.861843E-1,3.448675E1,4.2066574E-2,1.4820099E-3,3.326256E1,5.3704605E0,2.3798764E-2,0E0,0E0,4.7892407E-2,2.89319E1,4.2887665E1,5.6246376E0,1.0017669E-1,2.383995E-2,0E0,5.146861E-5,1.5337187E-1,2.1692505E0,6.0097437E0,2.3105103E1,2.209279E1,2.3167E0,1.6506109E0,0E0,7.083845E-2,0E0,0E0,0E0,0E0,0E0,0E0,0E0,0E0,0E0,0E0,0E0,0E0,0E0,0E0,0E0,0E0,0E0,0E0,0E0,0E0],"parents":[2147483647,0,0,1,1,3,3,4,4,5,5,6,6,7,7,8,8,9,9,12,12,13,13,14,14,15,15,16,16,17,17,19,19,20,20,21,21,22,22,23,23,24,24,25,25,26,26,28,28],"right_children":[2,4,-1,6,8,10,12,14,16,18,-1,-1,20,22,24,26,28,30,-1,32,34,36,38,40,42,44,46,-1,48,-1,-1,-1,-1,-1,-1,-1,-1,-1,-1,-1,-1,-1,-1,-1,-1,-1,-1,-1,-1],"split_conditions":[2E0,1E0,-4.0640687E-3,2.209164E-2,1E0,1E0,1E0,2.2097228E-2,1E0,1E0,-3.98527E-3,-4.0675844E-3,2.2381399E-2,1E0,2.2161162E-2,2.2284556E-2,2.2095157E-2,1E0,-5.149106E-3,1E0,2.253512E-2,1E0,2.209164E-2,1E0,1E0,2.2110611E-2,2.4040928E-2,-1.15244575E-2,2.2312956E-2,-2.0452084E-3,-6.0999594E-3,-4.1032163E-3,-3.3945625E-3,2.8144801E-2,-4.023261E-3,-4.66007E-3,-2.462872E-3,-1.3300389E-2,9.1390446E-4,2.0798272E-3,-6.07512E-4,-1.6711036E-3,6.0064247E-4,-1.4733027E-2,-8.792019E-3,-1.9821408E-3,2.1541525E-2,1.1864885E-2,2.205759E-2],"split_indices":[0,0,0,1,3,5,6,1,11,2,0,0,1,2,1,1,1,7,0,10,1,5,1,5,11,1,1,0,1,0,0,0,0,0,0,0,0,0,0,0,0,0,0,0,0,0,0,0,0],"split_type":[0,0,0,0,0,0,0,0,0,0,0,0,0,0,0,0,0,0,0,0,0,0,0,0,0,0,0,0,0,0,0,0,0,0,0,0,0,0,0,0,0,0,0,0,0,0,0,0,0],"sum_hessian":[8.08863E5,6.86251E5,1.22612E5,1.7437E4,6.68814E5,1.157E3,1.628E4,6.64392E5,4.422E3,1.005E3,1.52E2,1.6099E4,1.81E2,4.9265E4,6.15127E5,4.297E3,1.25E2,9.79E2,2.6E1,1.75E2,6E0,2.3768E4,2.5497E4,3.58392E5,2.56735E5,3.477E3,8.2E2,1E0,1.24E2,9.65E2,1.4E1,1.34E2,4.1E1,1E0,5E0,1.7746E4,6.022E3,3E2,2.5197E4,3.2288E5,3.5512E4,5.4287E4,2.02448E5,8.83E2,2.594E3,7.9E2,3E1,1.16E2,8E0],"tree_param":{"num_deleted":"0","num_feature":"12","num_nodes":"49","size_leaf_vector":"1"}},{"base_weights":[-1.3771413E-6,6.533546E-3,-3.657665E-3,1.7854708E-3,1.6924504E-2,-3.2232292E-2,6.929061E-3,1.9478897E-2,-3.326994E-2,3.3230789E-4,-3.5474E-2,1.8627409E-2,-3.2150522E-3,1.8761992E-2,9.428103E-2,-7.318667E-2,-1.4253763E-2,1.17123965E-2,-1.15052946E-1,-3.9184015E-2,-2.3050537E-2,1.897581E-2,-2.2271241E-1,2.0869242E-3,-2.8696567E-2,2.698403E-2,1.2344183E-2,-3.5593815E-3,9.6680835E-2,-8.3967686E-2,-4.905845E-2,-7.0630023E-3,-3.367039E-2,2.0899668E-3,-1.3746512E-2,-6.696307E-3,-1.3918537E-2,-4.33817E-3,-2.51581E-3,-1.830114E-3,-4.809921E-3,1.9866119E-3,-7.5804912E-3,-3.9676E-2,-1.3542416E-2,4.966259E-4,-2.7055196E-3,-1.9995663E-3,-7.1025686E-3,-6.089206E-5,3.287866E-3,1.1939416E-3,2.3044804E-2,8.505854E-3,1.0633083E-2,-2.538619E-3,-9.365484E-3,1.5060501E-3,-8.473455E-3,-2.590816E-3,4.7204178E-4,-3.6332884E-3,6.2058885E-3],"categories":[],"categories_nodes":[],"categories_segments":[],"categories_sizes":[],"default_left":[0,0,0,0,0,0,0,0,0,0,0,0,0,0,0,0,0,0,0,0,0,0,0,0,0,0,0,0,0,0,0,0,0,0,0,0,0,0,0,0,0,0,0,0,0,0,0,0,0,0,0,0,0,0,0,0,0,0,0,0,0,0,0],"id":27,"left_children":[1,3,-1,5,7,9,11,13,15,17,19,21,23,25,27,29,31,33,35,37,39,41,43,45,47,49,51,-1,53,55,57,59,61,-1,-1,-1,-1,-1,-1,-1,-1,-1,-1,-1,-1,-1,-1,-1,-1,-1,-1,-1,-1,-1,-1,-1,-1,-1,-1,-1,-1,-1,-1],"loss_changes":[1.9333217E2,3.385762E1,0E0,8.2416725E1,2.7596638E1,6.5308914E0,4.8554573E1,1.0981255E1,7.910677E0,7.357303E0,2.5924225E0,1.5981796E1,2.9605993E1,1.0704346E1,6.0933304E-1,8.706875E-1,9.856212E-1,6.992596E0,5.744238E-1,2.5497284E0,1.53866E0,1.6013306E1,4.108961E0,1.5220973E1,1.3899382E1,1.4464668E1,1.0055601E1,0E0,2.0505905E-1,1.315897E0,2.3825781E0,1.1446216E0,4.885633E-1,0E0,0E0,0E0,0E0,0E0,0E0,0E0,0E0,0E0,0E0,0E0,0E0,0E0,0E0,0E0,0E0,0E0,0E0,0E0,0E0,0E0,0E0,0E0,0E0,0E0,0E0,0E0,0E0,0E0,0E0],"parents":[2147483647,0,0,1,1,3,3,4,4,5,5,6,6,7,7,8,8,9,9,10,10,11,11,12,12,13,13,14,14,15,15,16,16,17,17,18,18,19,19,20,20,21,21,22,22,23,23,24,24,25,25,26,26,28,28,29,29,30,30,31,31,32,32],"right_children":[2,4,-1,6,8,10,12,14,16,18,20,22,24,26,28,30,32,34,36,38,40,42,44,46,48,50,52,-1,54,56,58,60,62,-1,-1,-1,-1,-1,-1,-1,-1,-1,-1,-1,-1,-1,-1,-1,-1,-1,-1,-1,-1,-1,-1,-1,-1,-1,-1,-1,-1,-1,-1],"split_conditions":[2E0,1E0,-3.657665E-3,2.2102728E-2,1E0,1E0,2.2149507E-2,2.3370806E-2,2.2116281E-2,1E0,2.2100372E-2,1E0,1E0,2.2117063E-2,1E0,2.2106899E-2,2.2243433E-2,1E0,2.2096975E-2,1E0,1E0,1E0,2.2128534E-2,2.2559898E-2,2.2461886E-2,2.2095688E-2,1E0,-3.5593815E-3,2.4040928E-2,2.2095423E-2,2.2109965E-2,2.2142038E-2,2.2944E-2,2.0899668E-3,-1.3746512E-2,-6.696307E-3,-1.3918537E-2,-4.33817E-3,-2.51581E-3,-1.830114E-3,-4.809921E-3,1.9866119E-3,-7.5804912E-3,-3.9676E-2,-1.3542416E-2,4.966259E-4,-2.7055196E-3,-1.9995663E-3,-7.1025686E-3,-6.089206E-5,3.287866E-3,1.1939416E-3,2.3044804E-2,8.505854E-3,1.0633083E-2,-2.538619E-3,-9.365484E-3,1.5060501E-3,-8.473455E-3,-2.590816E-3,4.7204178E-4,-3.6332884E-3,6.2058885E-3],"split_indices":[0,2,0,1,8,11,1,1,1,3,1,7,10,1,0,1,1,5,1,5,5,3,1,1,1,1,9,0,1,1,1,1,1,0,0,0,0,0,0,0,0,0,0,0,0,0,0,0,0,0,0,0,0,0,0,0,0,0,0,0,0,0,0],"split_type":[0,0,0,0,0,0,0,0,0,0,0,0,0,0,0,0,0,0,0,0,0,0,0,0,0,0,0,0,0,0,0,0,0,0,0,0,0,0,0,0,0,0,0,0,0,0,0,0,0,0,0,0,0,0,0,0,0,0,0,0,0,0,0],"sum_hessian":[8.08863E5,6.86251E5,1.22612E5,4.71022E5,2.15229E5,6.1865E4,4.09157E5,2.04807E5,1.0422E4,5.601E3,5.6264E4,1.90021E5,2.19136E5,2.02864E5,1.943E3,3.362E3,7.06E3,5.099E3,5.02E2,4.3324E4,1.294E4,1.89748E5,2.73E2,1.81394E5,3.7742E4,8.893E4,1.13934E5,3.5E1,1.908E3,2.322E3,1.04E3,5.153E3,1.907E3,4.804E3,2.95E2,1.69E2,3.33E2,3.3343E4,9.981E3,1.0879E4,2.061E3,1.87983E5,1.765E3,9E1,1.83E2,1.65084E5,1.631E4,3.1308E4,6.434E3,1.5654E4,7.3276E4,1.13724E5,2.1E2,8.7E2,1.038E3,3.3E2,1.992E3,3.72E2,6.68E2,1.982E3,3.171E3,1.856E3,5.1E1],"tree_param":{"num_deleted":"0","num_feature":"12","num_nodes":"63","size_leaf_vector":"1"}},{"base_weights":[-1.3586927E-6,5.880056E-3,-3.2919017E-3,-3.468842E-2,6.9377883E-3,-1.7901303E-2,-3.5880286E-2,7.1918927E-3,-1.5420976E-1,-1.5527247E-2,-3.3394105E-3,-3.3125117E-2,-3.740628E-2,7.682198E-3,-6.634347E-2,-6.185912E-2,-1.3951856E-1,-1.4658788E-2,-4.6474026E-3,-3.2723404E-2,-3.8076967E-3,-3.7458356E-2,-9.7105E-3,9.967342E-3,-7.6971087E-3,-7.1683265E-2,1.1632931E-1,-1.5987752E-1,-6.989149E-2,-1.4330884E-3,-9.108446E-3,-3.2489959E-3,-3.3859243E-3,-3.7815922E-3,-3.4427815E-3,2.8294313E-4,-2.6744788E-3,-5.1939196E-4,1.3499542E-3,-3.2247768E-3,-4.7006757E-5,-8.097752E-3,4.218466E-3,1.3461358E-2,7.36528E-3,-1.3247169E-2,-2.0877715E-2,-5.2544433E-3,-3.5941523E-2],"categories":[],"categories_nodes":[],"categories_segments":[],"categories_sizes":[],"default_left":[0,0,0,0,0,0,0,0,0,0,0,0,0,0,0,0,0,0,0,0,0,0,0,0,0,0,0,0,0,0,0,0,0,0,0,0,0,0,0,0,0,0,0,0,0,0,0,0,0],"id":28,"left_children":[1,3,-1,5,7,9,11,13,15,17,-1,19,21,23,25,-1,27,29,-1,31,-1,33,35,37,39,41,43,45,47,-1,-1,-1,-1,-1,-1,-1,-1,-1,-1,-1,-1,-1,-1,-1,-1,-1,-1,-1,-1],"loss_changes":[1.565982E2,2.9447716E1,0E0,3.4825516E-1,2.7387928E1,4.2073578E-2,6.7214966E-2,2.4076565E1,7.097601E0,2.6356027E-2,0E0,1.0315418E-2,1.4736176E-2,2.3312485E1,4.3226852E0,0E0,1.4375477E0,2.325371E-2,0E0,3.271103E-4,0E0,1.002121E-2,4.561458E-3,3.092825E1,1.5225668E1,4.552067E0,8.84043E-2,1.0310497E0,1.1513304E0,0E0,0E0,0E0,0E0,0E0,0E0,0E0,0E0,0E0,0E0,0E0,0E0,0E0,0E0,0E0,0E0,0E0,0E0,0E0,0E0],"parents":[2147483647,0,0,1,1,3,3,4,4,5,5,6,6,7,7,8,8,9,9,11,11,12,12,13,13,14,14,16,16,17,17,19,19,21,21,22,22,23,23,24,24,25,25,26,26,27,27,28,28],"right_children":[2,4,-1,6,8,10,12,14,16,18,-1,20,22,24,26,-1,28,30,-1,32,-1,34,36,38,40,42,44,46,48,-1,-1,-1,-1,-1,-1,-1,-1,-1,-1,-1,-1,-1,-1,-1,-1,-1,-1,-1,-1],"split_conditions":[2E0,1E0,-3.2919017E-3,2.209164E-2,1E0,1E0,2.2102728E-2,1E0,2.2117063E-2,1E0,-3.3394105E-3,1E0,1E0,2.2307675E-2,1E0,-6.185912E-2,2.2262044E-2,1E0,-4.6474026E-3,1E0,-3.8076967E-3,2.251337E-2,2.2124983E-2,2.2102999E-2,1E0,2.2494221E-2,2.216219E-2,2.2179136E-2,2.3095744E-2,-1.4330884E-3,-9.108446E-3,-3.2489959E-3,-3.3859243E-3,-3.7815922E-3,-3.4427815E-3,2.8294313E-4,-2.6744788E-3,-5.1939196E-4,1.3499542E-3,-3.2247768E-3,-4.7006757E-5,-8.097752E-3,4.218466E-3,1.3461358E-2,7.36528E-3,-1.3247169E-2,-2.0877715E-2,-5.2544433E-3,-3.5941523E-2],"split_indices":[0,0,0,1,7,5,1,3,1,2,0,2,7,1,11,0,1,6,0,5,0,1,1,1,11,1,1,1,1,0,0,0,0,0,0,0,0,0,0,0,0,0,0,0,0,0,0,0,0],"split_type":[0,0,0,0,0,0,0,0,0,0,0,0,0,0,0,0,0,0,0,0,0,0,0,0,0,0,0,0,0,0,0,0,0,0,0,0,0,0,0,0,0,0,0,0,0,0,0,0,0],"sum_hessian":[8.08863E5,6.86251E5,1.22612E5,1.7437E4,6.68814E5,1.157E3,1.628E4,6.67762E5,1.052E3,1.005E3,1.52E2,5.811E3,1.0469E4,6.6334E5,4.422E3,3.1E1,1.021E3,9.79E2,2.6E1,5.382E3,4.29E2,1.0449E4,2E1,5.77528E5,8.5812E4,4.297E3,1.25E2,7.89E2,2.32E2,9.76E2,3E0,4.489E3,8.93E2,9.336E3,1.113E3,1.2E1,8E0,1.09126E5,4.68402E5,1.9515E4,6.6297E4,3.973E3,3.24E2,8.6E1,3.9E1,5.08E2,2.81E2,2.2E2,1.2E1],"tree_param":{"num_deleted":"0","num_feature":"12","num_nodes":"49","size_leaf_vector":"1"}},{"base_weights":[-1.407922E-6,5.2918373E-3,-2.962714E-3,1.0228124E-3,1.4634417E-2,-2.7735617E-2,5.519997E-3,1.693019E-2,-3.0478053E-2,3.7118136E-3,-3.0936887E-2,1.5815126E-2,-3.4931188E-3,1.6270135E-2,8.5801095E-2,-6.679921E-2,-1.3686258E-2,1.3375163E-2,-9.603224E-2,-3.4400895E-2,-2.0575965E-2,1.906559E-2,-3.8477932E-3,1.0704923E-3,-2.5388613E-2,2.4040371E-2,1.0205001E-2,-2.8786159E-3,8.7917045E-2,-1.7441615E-2,-7.144887E-2,-3.809395E-3,-2.4457006E-2,2.1341117E-3,-1.1798988E-2,-5.2256035E-3,-1.169608E-2,-3.815837E-3,-2.1845934E-3,-1.5972502E-3,-4.483786E-3,1.9951244E-3,-6.170418E-3,-2.495469E-4,-2.235567E-2,3.574411E-4,-2.401604E-3,-1.9912731E-3,-7.4491403E-3,2.4838112E-6,2.9170755E-3,9.840886E-4,2.0640738E-2,7.743758E-3,9.6617425E-3,2.7618209E-2,-2.2604167E-3,-9.735883E-3,-5.5831843E-3,-1.3733844E-3,5.608219E-3,-7.373386E-3,-1.8562278E-3],"categories":[],"categories_nodes":[],"categories_segments":[],"categories_sizes":[],"default_left":[0,0,0,0,0,0,0,0,0,0,0,0,0,0,0,0,0,0,0,0,0,0,0,0,0,0,0,0,0,0,0,0,0,0,0,0,0,0,0,0,0,0,0,0,0,0,0,0,0,0,0,0,0,0,0,0,0,0,0,0,0,0,0],"id":29,"left_children":[1,3,-1,5,7,9,11,13,15,17,19,21,23,25,27,29,31,33,35,37,39,41,43,45,47,49,51,-1,53,55,57,59,61,-1,-1,-1,-1,-1,-1,-1,-1,-1,-1,-1,-1,-1,-1,-1,-1,-1,-1,-1,-1,-1,-1,-1,-1,-1,-1,-1,-1,-1,-1],"loss_changes":[1.2684319E2,2.737026E1,0E0,6.091848E1,2.229145E1,6.4126015E0,3.779641E1,9.308876E0,6.3560476E0,5.6745744E0,2.0741806E0,1.2152668E1,2.1701899E1,9.560287E0,4.7387314E-1,7.54941E-1,7.582984E-1,5.618804E0,4.7029734E-1,2.0430222E0,1.6174297E0,1.1673286E1,8.013896E0,1.1289634E1,1.0070803E1,1.0957088E1,8.137499E0,0E0,1.6657162E-1,4.382593E-1,1.212925E0,2.2119045E0,9.8914623E-1,0E0,0E0,0E0,0E0,0E0,0E0,0E0,0E0,0E0,0E0,0E0,0E0,0E0,0E0,0E0,0E0,0E0,0E0,0E0,0E0,0E0,0E0,0E0,0E0,0E0,0E0,0E0,0E0,0E0,0E0],"parents":[2147483647,0,0,1,1,3,3,4,4,5,5,6,6,7,7,8,8,9,9,10,10,11,11,12,12,13,13,14,14,15,15,16,16,17,17,18,18,19,19,20,20,21,21,22,22,23,23,24,24,25,25,26,26,28,28,29,29,30,30,31,31,32,32],"right_children":[2,4,-1,6,8,10,12,14,16,18,20,22,24,26,28,30,32,34,36,38,40,42,44,46,48,50,52,-1,54,56,58,60,62,-1,-1,-1,-1,-1,-1,-1,-1,-1,-1,-1,-1,-1,-1,-1,-1,-1,-1,-1,-1,-1,-1,-1,-1,-1,-1,-1,-1,-1,-1],"split_conditions":[2E0,1E0,-2.962714E-3,2.2102999E-2,1E0,1E0,2.215033E-2,2.3370806E-2,2.2115527E-2,1E0,2.2100372E-2,1E0,1E0,2.2117063E-2,1E0,2.2095157E-2,2.2181803E-2,1E0,2.2096975E-2,1E0,1E0,1E0,1E0,2.2559898E-2,1E0,2.2095688E-2,1E0,-2.8786159E-3,2.4040928E-2,2.209164E-2,2.2100627E-2,2.2166254E-2,2.2193313E-2,2.1341117E-3,-1.1798988E-2,-5.2256035E-3,-1.169608E-2,-3.815837E-3,-2.1845934E-3,-1.5972502E-3,-4.483786E-3,1.9951244E-3,-6.170418E-3,-2.495469E-4,-2.235567E-2,3.574411E-4,-2.401604E-3,-1.9912731E-3,-7.4491403E-3,2.4838112E-6,2.9170755E-3,9.840886E-4,2.0640738E-2,7.743758E-3,9.6617425E-3,2.7618209E-2,-2.2604167E-3,-9.735883E-3,-5.5831843E-3,-1.3733844E-3,5.608219E-3,-7.373386E-3,-1.8562278E-3],"split_indices":[0,2,0,1,8,11,1,1,1,3,1,5,10,1,0,1,1,5,1,5,5,3,8,1,5,1,9,0,1,1,1,1,1,0,0,0,0,0,0,0,0,0,0,0,0,0,0,0,0,0,0,0,0,0,0,0,0,0,0,0,0,0,0],"split_type":[0,0,0,0,0,0,0,0,0,0,0,0,0,0,0,0,0,0,0,0,0,0,0,0,0,0,0,0,0,0,0,0,0,0,0,0,0,0,0,0,0,0,0,0,0,0,0,0,0,0,0,0,0,0,0,0,0,0,0,0,0,0,0],"sum_hessian":[8.08863E5,6.86251E5,1.22612E5,4.71022E5,2.15229E5,6.3696E4,4.07326E5,2.04807E5,1.0422E4,5.885E3,5.7811E4,1.9014E5,2.17186E5,2.02864E5,1.943E3,3.294E3,7.128E3,5.366E3,5.19E2,4.3324E4,1.4487E4,1.63167E5,2.6973E4,1.79727E5,3.7459E4,8.893E4,1.13934E5,3.5E1,1.908E3,2.84E2,3.01E3,3.719E3,3.409E3,5.06E3,3.06E2,1.69E2,3.5E2,3.3343E4,9.981E3,1.2178E4,2.309E3,1.61398E5,1.769E3,2.6809E4,1.64E2,1.63417E5,1.631E4,3.3702E4,3.757E3,1.5654E4,7.3276E4,1.13724E5,2.1E2,8.7E2,1.038E3,4E0,2.8E2,1.13E3,1.88E3,3.191E3,5.28E2,3.63E2,3.046E3],"tree_param":{"num_deleted":"0","num_feature":"12","num_nodes":"63","size_leaf_vector":"1"}},{"base_weights":[-1.3135033E-6,4.762603E-3,-2.6664452E-3,9.2035724E-4,1.3171196E-2,-2.496267E-2,4.967892E-3,1.5237378E-2,-2.7429761E-2,3.3361295E-3,-2.7843418E-2,1.4331154E-2,-3.0731342E-3,1.4643259E-2,7.722846E-2,-6.1533153E-2,-1.29048955E-2,1.2035862E-2,-8.646156E-2,-3.096095E-2,-1.8518811E-2,1.4618728E-2,-1.8367298E-1,1.0640441E-3,-2.2956567E-2,2.096387E-2,8.547373E-3,-2.5987504E-3,7.913446E-2,-1.560848E-2,-6.613796E-2,-9.959283E-3,-4.3698173E-2,1.9207444E-3,-1.06229335E-2,-4.706117E-3,-1.0529804E-2,-3.434265E-3,-1.9661568E-3,-1.4375409E-3,-4.035604E-3,1.7572977E-3,-3.2552695E-4,-3.302197E-2,-1.1099428E-2,1.5928046E-4,-1.1875364E-2,-1.5642066E-3,-5.854115E-3,-8.538711E-4,2.3916666E-3,8.238309E-4,1.8750103E-2,7.342012E-3,9.474934E-3,2.540875E-2,-2.0351796E-3,-8.763156E-3,-5.179105E-3,-2.4740256E-3,-2.5266243E-4,-5.2894596E-3,6.095566E-3],"categories":[],"categories_nodes":[],"categories_segments":[],"categories_sizes":[],"default_left":[0,0,0,0,0,0,0,0,0,0,0,0,0,0,0,0,0,0,0,0,0,0,0,0,0,0,0,0,0,0,0,0,0,0,0,0,0,0,0,0,0,0,0,0,0,0,0,0,0,0,0,0,0,0,0,0,0,0,0,0,0,0,0],"id":30,"left_children":[1,3,-1,5,7,9,11,13,15,17,19,21,23,25,27,29,31,33,35,37,39,41,43,45,47,49,51,-1,53,55,57,59,61,-1,-1,-1,-1,-1,-1,-1,-1,-1,-1,-1,-1,-1,-1,-1,-1,-1,-1,-1,-1,-1,-1,-1,-1,-1,-1,-1,-1,-1,-1],"loss_changes":[1.0274281E2,2.2171337E1,0E0,4.934565E1,1.805584E1,5.1927834E0,3.066779E1,7.541958E0,5.162209E0,4.5992775E0,1.6800079E0,1.0718472E1,1.802652E1,7.8161545E0,3.844986E-1,6.572876E-1,6.627095E-1,4.554054E0,3.8097048E-1,1.6548195E0,1.3103004E0,9.92297E0,2.8710232E0,1.1492443E1,9.822968E0,8.6765175E0,5.71012E0,0E0,1.6338062E-1,3.697582E-1,8.6783123E-1,7.3315597E-1,6.1726165E-1,0E0,0E0,0E0,0E0,0E0,0E0,0E0,0E0,0E0,0E0,0E0,0E0,0E0,0E0,0E0,0E0,0E0,0E0,0E0,0E0,0E0,0E0,0E0,0E0,0E0,0E0,0E0,0E0,0E0,0E0],"parents":[2147483647,0,0,1,1,3,3,4,4,5,5,6,6,7,7,8,8,9,9,10,10,11,11,12,12,13,13,14,14,15,15,16,16,17,17,18,18,19,19,20,20,21,21,22,22,23,23,24,24,25,25,26,26,28,28,29,29,30,30,31,31,32,32],"right_children":[2,4,-1,6,8,10,12,14,16,18,20,22,24,26,28,30,32,34,36,38,40,42,44,46,48,50,52,-1,54,56,58,60,62,-1,-1,-1,-1,-1,-1,-1,-1,-1,-1,-1,-1,-1,-1,-1,-1,-1,-1,-1,-1,-1,-1,-1,-1,-1,-1,-1,-1,-1,-1],"split_conditions":[2E0,1E0,-2.6664452E-3,2.2102999E-2,1E0,1E0,2.2149507E-2,2.3370806E-2,2.2113701E-2,1E0,2.2100372E-2,1E0,1E0,2.2123042E-2,1E0,2.2095157E-2,2.2381399E-2,1E0,2.2096975E-2,1E0,1E0,1E0,2.2128534E-2,1E0,2.2461886E-2,2.2094626E-2,1E0,-2.5987504E-3,1E0,2.209164E-2,2.2100627E-2,2.2142038E-2,2.2944E-2,1.9207444E-3,-1.06229335E-2,-4.706117E-3,-1.0529804E-2,-3.434265E-3,-1.9661568E-3,-1.4375409E-3,-4.035604E-3,1.7572977E-3,-3.2552695E-4,-3.302197E-2,-1.1099428E-2,1.5928046E-4,-1.1875364E-2,-1.5642066E-3,-5.854115E-3,-8.538711E-4,2.3916666E-3,8.238309E-4,1.8750103E-2,7.342012E-3,9.474934E-3,2.540875E-2,-2.0351796E-3,-8.763156E-3,-5.179105E-3,-2.4740256E-3,-2.5266243E-4,-5.2894596E-3,6.095566E-3],"split_indices":[0,2,0,1,8,11,1,1,1,3,1,7,10,1,0,1,1,5,1,5,5,5,1,7,1,1,9,0,10,1,1,1,1,0,0,0,0,0,0,0,0,0,0,0,0,0,0,0,0,0,0,0,0,0,0,0,0,0,0,0,0,0,0],"split_type":[0,0,0,0,0,0,0,0,0,0,0,0,0,0,0,0,0,0,0,0,0,0,0,0,0,0,0,0,0,0,0,0,0,0,0,0,0,0,0,0,0,0,0,0,0,0,0,0,0,0,0,0,0,0,0,0,0,0,0,0,0,0,0],"sum_hessian":[8.08863E5,6.86251E5,1.22612E5,4.71022E5,2.15229E5,6.3696E4,4.07326E5,2.04807E5,1.0422E4,5.885E3,5.7811E4,1.8819E5,2.19136E5,2.02864E5,1.943E3,3.112E3,7.31E3,5.366E3,5.19E2,4.3324E4,1.4487E4,1.87918E5,2.72E2,1.81394E5,3.7742E4,9.9595E4,1.03269E5,3.5E1,1.908E3,2.84E2,2.828E3,6.673E3,6.37E2,5.06E3,3.06E2,1.69E2,3.5E2,3.3343E4,9.981E3,1.2178E4,2.309E3,1.61264E5,2.6654E4,8.9E1,1.83E2,1.80598E5,7.96E2,3.1308E4,6.434E3,9.061E3,9.0534E4,1.03092E5,1.77E2,1.401E3,5.07E2,4E0,2.8E2,1.13E3,1.698E3,2.232E3,4.441E3,5.86E2,5.1E1],"tree_param":{"num_deleted":"0","num_feature":"12","num_nodes":"63","size_leaf_vector":"1"}},{"base_weights":[-1.2606122E-6,4.2862543E-3,-2.399803E-3,-2.9669639E-2,5.171579E-3,-2.101417E-2,-3.4742273E-2,5.37884E-3,-1.2626842E-1,-9.433843E-3,-2.354565E-2,-3.4832988E-2,4.8617967E-3,5.778203E-3,-5.4516986E-2,-5.318435E-2,-1.1344584E-1,-6.912124E-3,-2.5952903E-3,-2.2566905E-2,-3.6165908E-2,-3.54115E-2,-2.9683916E-2,-2.37474E-3,1.2804339E-2,-3.0660959E-2,6.4282343E-3,-6.26296E-2,4.6957962E-2,-1.3175625E-1,-5.087647E-2,-5.960986E-4,-4.11789E-3,-2.177155E-3,-2.652579E-3,-3.2504604E-3,-4.1136006E-3,-2.8742347E-3,-3.5817057E-3,-3.0167631E-3,5.112205E-3,3.1208422E-3,-1.520204E-3,-3.5179679E-3,6.7495755E-3,8.978597E-4,-3.9267718E-4,-6.7785564E-3,1.0446319E-2,2.727881E-2,3.2965285E-3,-1.0671014E-2,-1.7649636E-2,-3.7663856E-3,-3.7553895E-2],"categories":[],"categories_nodes":[],"categories_segments":[],"categories_sizes":[],"default_left":[0,0,0,0,0,0,0,0,0,0,0,0,0,0,0,0,0,0,0,0,0,0,0,0,0,0,0,0,0,0,0,0,0,0,0,0,0,0,0,0,0,0,0,0,0,0,0,0,0,0,0,0,0,0,0],"id":31,"left_children":[1,3,-1,5,7,9,11,13,15,17,19,21,23,25,27,-1,29,31,-1,33,35,37,39,-1,41,43,45,47,49,51,53,-1,-1,-1,-1,-1,-1,-1,-1,-1,-1,-1,-1,-1,-1,-1,-1,-1,-1,-1,-1,-1,-1,-1,-1],"loss_changes":[8.322128E1,2.0630257E1,0E0,7.649021E-1,1.8220785E1,1.8874454E-1,3.966427E-2,1.5973328E1,5.4158077E0,4.8058763E-2,6.451392E-2,3.1620026E-2,6.2120426E-3,1.5712496E1,3.6440754E0,0E0,1.1641722E0,3.2542508E-2,0E0,1.4885902E-2,5.5595934E-3,2.5626183E-2,4.508537E-2,0E0,1.1298496E-2,5.1590023E0,1.7211214E1,3.535881E0,1.0274773E0,8.6641216E-1,9.853419E-1,0E0,0E0,0E0,0E0,0E0,0E0,0E0,0E0,0E0,0E0,0E0,0E0,0E0,0E0,0E0,0E0,0E0,0E0,0E0,0E0,0E0,0E0,0E0,0E0],"parents":[2147483647,0,0,1,1,3,3,4,4,5,5,6,6,7,7,8,8,9,9,10,10,11,11,12,12,13,13,14,14,16,16,17,17,19,19,20,20,21,21,22,22,24,24,25,25,26,26,27,27,28,28,29,29,30,30],"right_children":[2,4,-1,6,8,10,12,14,16,18,20,22,24,26,28,-1,30,32,-1,34,36,38,40,-1,42,44,46,48,50,52,54,-1,-1,-1,-1,-1,-1,-1,-1,-1,-1,-1,-1,-1,-1,-1,-1,-1,-1,-1,-1,-1,-1,-1,-1],"split_conditions":[2E0,1E0,-2.399803E-3,2.2100372E-2,1E0,2.209164E-2,1E0,1E0,2.2117063E-2,1E0,1E0,2.251337E-2,2.2102728E-2,2.2093466E-2,2.2494221E-2,-5.318435E-2,2.2262044E-2,1E0,-2.5952903E-3,1E0,2.2095688E-2,2.2102999E-2,1E0,-2.37474E-3,2.2124983E-2,1E0,2.2243433E-2,1E0,2.251337E-2,2.2179136E-2,2.3370806E-2,-5.960986E-4,-4.11789E-3,-2.177155E-3,-2.652579E-3,-3.2504604E-3,-4.1136006E-3,-2.8742347E-3,-3.5817057E-3,-3.0167631E-3,5.112205E-3,3.1208422E-3,-1.520204E-3,-3.5179679E-3,6.7495755E-3,8.978597E-4,-3.9267718E-4,-6.7785564E-3,1.0446319E-2,2.727881E-2,3.2965285E-3,-1.0671014E-2,-1.7649636E-2,-3.7663856E-3,-3.7553895E-2],"split_indices":[0,0,0,1,7,1,7,3,1,5,2,1,1,1,1,0,1,2,0,5,1,1,6,0,1,10,1,11,1,1,1,0,0,0,0,0,0,0,0,0,0,0,0,0,0,0,0,0,0,0,0,0,0,0,0],"split_type":[0,0,0,0,0,0,0,0,0,0,0,0,0,0,0,0,0,0,0,0,0,0,0,0,0,0,0,0,0,0,0,0,0,0,0,0,0,0,0,0,0,0,0,0,0,0,0,0,0,0,0,0,0,0,0],"sum_hessian":[8.08863E5,6.86251E5,1.22612E5,1.7437E4,6.68814E5,6.445E3,1.0992E4,6.67762E5,1.052E3,1.157E3,5.288E3,1.0967E4,2.5E1,6.6334E5,4.422E3,3.1E1,1.021E3,1.005E3,1.52E2,4.91E3,3.78E2,9.854E3,1.113E3,5E0,2E1,1.1625E4,6.51715E5,4.095E3,3.27E2,7.89E2,2.32E2,9.79E2,2.6E1,4.094E3,8.16E2,2.22E2,1.56E2,5.69E2,9.285E3,1.107E3,6E0,1.2E1,8E0,1.1114E4,5.11E2,5.22923E5,1.28792E5,3.973E3,1.22E2,1.8E1,3.09E2,5.08E2,2.81E2,2.24E2,8E0],"tree_param":{"num_deleted":"0","num_feature":"12","num_nodes":"55","size_leaf_vector":"1"}},{"base_weights":[-1.2883588E-6,3.857451E-3,-2.1598244E-3,4.742511E-4,1.1261443E-2,-2.0876374E-2,4.3586995E-3,1.3123578E-2,-2.5329906E-2,3.8079072E-3,-2.3579888E-2,1.3240475E-2,-2.9118385E-3,1.290234E-2,1.5762655E-1,-5.4612726E-2,-1.1379553E-2,1.1638202E-2,-8.3219476E-2,-2.7508382E-2,-1.5850792E-2,-2.9440909E-3,1.636668E-2,-1.8820405E-4,-2.8834658E-2,1.2354736E-2,6.995262E-2,-2.1271068E-1,1.6679345E-1,-2.2768304E-2,-5.9562124E-2,4.886822E-2,-1.3360593E-2,1.7190425E-3,-8.472073E-3,-7.4821026E-3,-2.8737172E-2,-3.0573863E-3,-1.7265655E-3,-1.1802324E-3,-3.8100746E-3,2.42405E-3,-1.6171659E-3,-3.4074055E-3,1.7483495E-3,-1.4968434E-3,3.208743E-4,-2.1192678E-3,-5.6374883E-3,1.868904E-3,7.406992E-4,-2.0527977E-3,7.162227E-3,9.105975E-3,-2.69115E-2,1.5427209E-2,1.9653952E-2,2.3657484E-2,-2.5599299E-3,-8.726118E-3,-4.585969E-3,-6.076192E-5,5.860872E-3,-3.0731221E-3,-7.342027E-4],"categories":[],"categories_nodes":[],"categories_segments":[],"categories_sizes":[],"default_left":[0,0,0,0,0,0,0,0,0,0,0,0,0,0,0,0,0,0,0,0,0,0,0,0,0,0,0,0,0,0,0,0,0,0,0,0,0,0,0,0,0,0,0,0,0,0,0,0,0,0,0,0,0,0,0,0,0,0,0,0,0,0,0,0,0],"id":32,"left_children":[1,3,-1,5,7,9,11,13,15,17,19,21,23,25,27,29,31,33,35,37,39,41,43,45,47,49,51,53,55,57,59,61,63,-1,-1,-1,-1,-1,-1,-1,-1,-1,-1,-1,-1,-1,-1,-1,-1,-1,-1,-1,-1,-1,-1,-1,-1,-1,-1,-1,-1,-1,-1,-1,-1],"loss_changes":[6.740841E1,1.7190048E1,0E0,3.9064575E1,1.4665686E1,4.8386555E0,2.5734518E1,6.5456276E0,4.2572346E0,4.8787885E0,1.9837761E0,9.076155E0,1.5472005E1,6.387779E0,1.0980654E0,5.286875E-1,8.4340614E-1,3.5153775E0,9.9180555E-1,1.359829E0,1.9834328E0,1.0443129E1,8.469864E0,9.956378E0,4.3837776E0,6.3479767E0,2.951498E-1,1.615772E-1,8.36525E-2,3.3938247E-1,1.1004734E0,1.0846746E-1,7.145574E-1,0E0,0E0,0E0,0E0,0E0,0E0,0E0,0E0,0E0,0E0,0E0,0E0,0E0,0E0,0E0,0E0,0E0,0E0,0E0,0E0,0E0,0E0,0E0,0E0,0E0,0E0,0E0,0E0,0E0,0E0,0E0,0E0],"parents":[2147483647,0,0,1,1,3,3,4,4,5,5,6,6,7,7,8,8,9,9,10,10,11,11,12,12,13,13,14,14,15,15,16,16,17,17,18,18,19,19,20,20,21,21,22,22,23,23,24,24,25,25,26,26,27,27,28,28,29,29,30,30,31,31,32,32],"right_children":[2,4,-1,6,8,10,12,14,16,18,20,22,24,26,28,30,32,34,36,38,40,42,44,46,48,50,52,54,56,58,60,62,64,-1,-1,-1,-1,-1,-1,-1,-1,-1,-1,-1,-1,-1,-1,-1,-1,-1,-1,-1,-1,-1,-1,-1,-1,-1,-1,-1,-1,-1,-1,-1,-1],"split_conditions":[2E0,1E0,-2.1598244E-3,2.2104342E-2,1E0,1E0,2.2149507E-2,1E0,2.2116281E-2,1E0,2.2100372E-2,1E0,2.2559898E-2,2.3370806E-2,2.2097228E-2,2.209595E-2,2.2118667E-2,1E0,2.2103807E-2,1E0,1E0,2.211442E-2,1E0,1E0,1E0,2.2117063E-2,1E0,2.2094086E-2,2.2156447E-2,2.209164E-2,2.2100627E-2,2.211664E-2,2.2142038E-2,1.7190425E-3,-8.472073E-3,-7.4821026E-3,-2.8737172E-2,-3.0573863E-3,-1.7265655E-3,-1.1802324E-3,-3.8100746E-3,2.42405E-3,-1.6171659E-3,-3.4074055E-3,1.7483495E-3,-1.4968434E-3,3.208743E-4,-2.1192678E-3,-5.6374883E-3,1.868904E-3,7.406992E-4,-2.0527977E-3,7.162227E-3,9.105975E-3,-2.69115E-2,1.5427209E-2,1.9653952E-2,2.3657484E-2,-2.5599299E-3,-8.726118E-3,-4.585969E-3,-6.076192E-5,5.860872E-3,-3.0731221E-3,-7.342027E-4],"split_indices":[0,2,0,1,8,11,1,9,1,3,1,11,1,1,1,1,1,5,1,5,5,1,0,11,10,1,0,1,1,1,1,1,1,0,0,0,0,0,0,0,0,0,0,0,0,0,0,0,0,0,0,0,0,0,0,0,0,0,0,0,0,0,0,0,0],"split_type":[0,0,0,0,0,0,0,0,0,0,0,0,0,0,0,0,0,0,0,0,0,0,0,0,0,0,0,0,0,0,0,0,0,0,0,0,0,0,0,0,0,0,0,0,0,0,0,0,0,0,0,0,0,0,0,0,0,0,0,0,0,0,0,0,0],"sum_hessian":[8.08863E5,6.86251E5,1.22612E5,4.71022E5,2.15229E5,7.2504E4,3.98518E5,2.04807E5,1.0422E4,7.157E3,6.5347E4,1.79382E5,2.19136E5,2.04495E5,3.12E2,3.362E3,7.06E3,6.567E3,5.9E2,4.3324E4,2.2023E4,2.904E4,1.50342E5,1.98302E5,2.0834E4,2.02552E5,1.943E3,7E0,3.05E2,4.53E2,2.909E3,2.24E2,6.836E3,6.21E3,3.57E2,5.68E2,2.2E1,3.3343E4,9.981E3,1.8634E4,3.389E3,9.505E3,1.9535E4,3.256E3,1.47086E5,3.7058E4,1.61244E5,1.631E4,4.524E3,8.8828E4,1.13724E5,3.5E1,1.908E3,1E0,6E0,2.19E2,8.6E1,4E0,4.49E2,9.61E2,1.948E3,3.7E1,1.87E2,1.758E3,5.078E3],"tree_param":{"num_deleted":"0","num_feature":"12","num_nodes":"65","size_leaf_vector":"1"}},{"base_weights":[-1.1883558E-6,3.471675E-3,-1.9438438E-3,-2.5134748E-2,4.2175245E-3,-1.6367467E-2,-3.027336E-2,4.4043665E-3,-1.1427286E-1,-5.7273004E-3,-1.8693984E-2,-3.035765E-2,6.4489907E-3,1.4973547E-3,